svm_type c_svc
kernel_type linear
nr_class 6
total_sv 458
rho -0.91121076689630254 -0.52300166410634463 -0.94219396340818806 -0.84451889385499279 -0.97811516823184141 0.79125733909203444 0.043387448676197843 0.45848640499727927 -0.68548954197695799 -0.85926086385025546 -0.51407539044767003 -0.97648209869135105 0.52042040832007641 -0.76113368974504869 -0.8953205720195796
label 1 2 3 4 5 6
nr_sv 354 27 43 14 17 3
SV
0 0 0.071819850796045859 0 0 20:0.015917171 45:0.035733181 46:0.13800248 86:0.034292487 90:0.039522664 124:0.11375935 142:0.034292487 150:0.092698477 176:0.020088176 180:0.17184886 209:0.046000826 241:0.037974749 254:0.12414812 264:0.01754668 283:0.046651842 335:0.13800248 349:0.015550614 361:0.029255019 443:0.077441848 461:0.025465537 489:0.031943699 492:0.10186215 533:0.053132677 548:0.094360264 561:0.033044501 606:0.035733181 722:0.046000826 841:0.042211344 859:0.012253141 891:0.021676055 912:0.13521498 957:0.029255019 976:0.035733181 1063:0.037437161 1178:0.037437161 1311:0.074874322 1363:0.021336162 1364:0.030958999 1397:0.063887399 1480:0.033044501 1544:0.09900292 1546:0.027169517 1716:0.030958999 1796:0.015372589 1809:0.033044501 1827:0.013610014 1888:0.037437161 1892:0.046000826 1901:0.042211344 1915:0.046000826 1929:0.033044501 1967:0.14293273 1974:0.084422688 1984:0.046000826 2072:0.060136457 2142:0.042211344 2159:0.05775198 2162:0.054339033 2174:0.11856799 2368:0.039522664 2491:0.012127689 2502:0.037437161 2564:0.031943699 2571:0.026644843 2713:0.012906975 2714:0.10287746 2716:0.11402776 2739:0.061917997 2771:0.1088543 2781:0.037437161 2783:0.11702008 2792:0.022028776 2804:0.025279855 2809:0.0815396 2828:0.046000826 2885:0.027814325 2906:0.074874322 2954:0.037437161 2958:0.021336162 2989:0.033803744 2999:0.03850132 3000:0.022776857 3048:0.11014388 3054:0.027169517 3059:0.030068228 3079:0.020088176 3086:0.0203849 3120:0.026566339 3139:0.13800248 3177:0.037437161 3209:0.046000826 3240:0.069533688 3263:0.022587468 3283:0.079347172 3370:0.095053818 3379:0.056468669 3386:0.10217998 3402:0.039522664 3480:0.046000826 3509:0.046000826 3520:0.09425578 3561:0.046000826 3575:0.027814325 3636:0.014058709 3721:0.024960224 3808:0.024480836 3861:0.037140898 3872:0.046000826 3887:0.023174619 3930:0.16513046 3959:0.01925066 4003:0.046000826 4040:0.015372589 4059:0.088859481 4074:0.1112573 4085:0.046000826 4134:0.021481108 4139:0.042211344 4230:0.024480836 4298:0.042211344 4331:0.0407698 4357:0.042211344 4366:0.084422688 4414:0.010957913 4459:0.017771896 4489:0.023174619 4490:0.046000826 4534:0.1000737 4545:0.037437161 4560:0.046000826 4578:0.013610014 4623:0.11068518 4624:0.035543793 4655:0.14245287 4656:0.030068228 4658:0.016105986 4680:0.016696457 4690:0.046000826 4707:0.027813475 4726:0.023174619 4803:0.030958999 4811:0.037437161 4874:0.11795033 4926:0.034292487 4941:0.046000826 4974:0.046000826 5154:0.046000826 5157:0.031943699 5352:0.035733181 5387:0.035733181 5389:0.022395334 5441:0.046000826 5535:0.029255019 5541:0.037437161 5742:0.035733181 5743:0.018482062 5857:0.15732096 5881:0.033044501 5884:0.030068228 5972:0.13904772 5988:0.066089002 6014:0.033044501 6030:0.025465537 6040:0.092698477 6042:0.046000826 6056:0.063887399 6099:0.035733181 6261:0.071290363 6263:0.046000826 6285:0.036964123 6286:0.042211344 6290:0.039522664 6516:0.01925066 6544:0.027169517 6547:0.042211344 6593:0.039522664 6624:0.035733181 6660:0.039522664 6739:0.12937443 6816:0.019521578 6861:0.034225231 6863:0.01649546 6865:0.11580949 6866:0.027169517 6871:0.017326764 6875:0.05199948 6877:0.03850132 6880:0.034292487 6885:0.021336162 6887:0.019800584 6897:0.072023394 6904:0.060136457 6956:0.050705616 6978:0.12760489 6998:0.046000826 7006:0.022395334 7010:0.026566339 7089:0.042211344 7151:0.027814325 7174:0.15809065 7201:0.22805551 7273:0.05055971 7402:0.046000826 7444:0.035733181 7446:0.034292487 7460:0.046000826 7465:0.039522664 7466:0.030068228 7478:0.014213192 7490:0.035733181 7496:0.018239294 7499:0.26711546 7531:0.02599974 7543:0.064534874 7548:0.025465537 7551:0.027514396 7553:0.01925066 7557:0.058510038 7568:0.01754668 7581:0.019800584 7626:0.071290363 7661:0.044057553 7662:0.046000826 7673:0.057013878 7675:0.030068228 7687:0.028506939 7724:0.046000826 7734:0.059401752 7739:0.21481108 7743:0.028506939 7746:0.025813949 7747:0.022028776 
0 0 0.12367750038964893 0 0 20:0.024321222 45:0.054599818 46:0.07028864 101:0.13321019 124:0.019313638 176:0.030694462 180:0.016411421 254:0.063232218 270:0.043558217 347:0.11221916 349:0.071283383 426:0.07028864 434:0.064498363 526:0.089402547 548:0.036045302 570:0.060390095 571:0.034802729 622:0.043558217 640:0.057203476 798:0.07028864 853:0.054599818 859:0.018722633 891:0.033120719 904:0.12304864 912:0.025825832 1166:0.060390095 1221:0.060510049 1316:0.064498363 1363:0.032601367 1397:0.048809541 1500:0.037406387 1796:0.070467325 1827:0.020795917 1852:0.1836811 2046:0.029012451 2322:0.069605457 2323:0.050491551 2402:0.050491551 2491:0.18530945 2519:0.048809541 2584:0.031616109 2624:0.07028864 2642:0.064498363 2713:0.078886731 2736:0.14418121 2741:0.029828707 2771:0.047522255 2789:0.074812773 2792:0.033659672 2793:0.073419269 2804:0.019313638 2809:0.093443554 2816:0.064498363 2840:0.064498363 2958:0.032601367 2989:0.025825832 2999:0.029414748 3048:0.10097902 3051:0.030255024 3068:0.040593006 3086:0.031147851 3089:0.033659672 3115:0.064498363 3120:0.040593006 3147:0.045943846 3184:0.050409678 3240:0.021249307 3263:0.051770017 3283:0.060620703 3352:0.22971923 3370:0.018155118 3379:0.15531005 3520:0.10287254 3577:0.048809541 3623:0.043558217 3636:0.021481516 3790:0.064498363 3806:0.027507842 3861:0.09458465 3886:0.07028864 3887:0.035410505 3933:0.043558217 3953:0.12078019 4069:0.064498363 4134:0.24617131 4315:0.033120719 4331:0.031147851 4414:0.016743542 4459:0.027155217 4489:0.035410505 4510:0.030694462 4534:0.019113907 4571:0.047304931 4578:0.041591834 4655:0.050230627 4658:0.024609729 4707:0.021249307 5285:0.057203476 5385:0.048809541 5389:0.034219767 5608:0.060390095 5665:0.038910996 5706:0.072090604 5743:0.02824034 5846:0.12899673 5858:0.060390095 5971:0.060390095 5972:0.035410505 6002:0.10458703 6030:0.038910996 6040:0.07082101 6108:0.060390095 6232:0.057203476 6261:0.036310237 6285:0.05648068 6351:0.14057728 6371:0.07028864 6516:0.029414748 6739:0.05648068 6752:0.052398457 6816:0.29828707 6854:0.032601367 6861:0.19175086 6863:0.025204839 6865:0.080434242 6897:0.036683591 6956:0.025825832 6978:0.032496425 7166:0.039727251 7199:0.064498363 7201:0.043558217 7203:0.21086592 7273:0.057940915 7459:0.029012451 7462:0.067319345 7478:0.021717565 7499:0.10740758 7509:0.047304931 7543:0.17749514 7551:0.021020813 7654:0.064498363 7686:0.057203476 7717:0.048809541 7718:0.02824034 7739:0.34463984 7746:0.059165048 
0 0.45290224013076202 0 0.025878426111948859 0.0018876872095608338 97:0.33657378 124:0.050392475 143:0.33657378 180:0.04282011 443:0.05145713 900:0.10591386 1327:0.1108893 1678:0.18339468 1704:0.1108893 2405:0.099510654 2471:0.36678936 2804:0.050392475 3197:0.12342638 3283:0.039542359 3636:0.056048827 3887:0.18478372 4059:0.49596715 4414:0.04368667 5406:0.18339468 6002:0.13644242 6309:0.14925332 6859:0.16828689 6863:0.13152718 6865:0.041973246 6878:0.055442954 7551:0.054846775 7564:0.23975018 7739:0.17128044 7743:0.11365059 7757:0.14245995 
0 0 0 0 0.068368037397215808 101:0.046893124 150:0.037395994 180:0.10398972 207:0.055336472 211:0.057661265 270:0.046000554 347:0.039503787 349:0.025093429 420:0.060410911 461:0.04109276 656:0.042869082 690:0.055336472 710:0.033900124 715:0.057661265 769:0.040277356 824:0.074229769 859:0.019772423 900:0.042869082 904:0.025989612 961:0.023708852 1013:0.055336472 1094:0.068114827 1123:0.082185521 1135:0.057661265 1363:0.068858694 1503:0.18123273 1796:0.12403079 1827:0.065885872 1852:0.024247527 1872:0.048519947 2039:0.14845954 2046:0.061278396 2369:0.055336472 2451:0.04109276 2491:0.039139974 2571:0.021497881 2593:0.049957349 2713:0.12496494 2736:0.11419915 2755:0.068114827 2789:0.039503787 2804:0.020396566 2885:0.089765818 3048:0.10664097 3068:0.042869082 3240:0.022440769 3263:0.14579412 3264:0.041954784 3283:0.11203455 3329:0.068114827 3370:0.019173088 3379:0.25513971 3520:0.15209694 3544:0.062128103 3636:0.022685999 3762:0.068114827 3848:0.027273903 3861:0.099888072 3892:0.053322644 3936:0.063776207 3952:0.074229769 3959:0.093192155 3965:0.063776207 4034:0.055336472 4040:0.074418473 4059:0.028677827 4134:0.15598458 4201:0.068114827 4230:0.039503787 4281:0.068114827 4334:0.060410911 4361:0.049957349 4397:0.046000554 4414:0.070729454 4488:0.027959534 4489:0.037395994 4512:0.097246559 4534:0.060556907 4578:0.065885872 4655:0.035364727 4658:0.025989612 4680:0.026942432 4695:0.042869082 4717:0.068114827 5008:0.051546323 5012:0.046000554 5046:0.053322644 5063:0.13622965 5158:0.057661265 5180:0.20434448 5250:0.029050224 5335:0.060410911 5594:0.039503787 5596:0.14845954 5702:0.074229769 5743:0.029823794 5744:0.055336472 5745:0.046000554 5857:0.076158838 5864:0.053322644 5881:0.053322644 5956:0.12755241 5972:0.33656395 5992:0.048519947 6002:0.055225645 6050:0.057661265 6283:0.074229769 6661:0.074229769 6720:0.060410911 6752:0.055336472 6771:0.063776207 6791:0.047207702 6823:0.068114827 6861:0.09204657 6865:0.32278812 6871:0.027959534 6878:0.022440769 6978:0.068637041 7004:0.055336472 7062:0.074229769 7249:0.068114827 7273:0.081586266 7294:0.060410911 7446:0.055336472 7459:0.091917594 7462:0.10664097 7489:0.055336472 7496:0.088296149 7499:0.022685999 7543:0.02082749 7557:0.047207702 7568:0.05662881 7572:0.079007573 7597:0.028314405 7624:0.099914698 7626:0.038346175 7661:0.035546992 7701:0.11929518 7717:0.051546323 7739:0.10398972 
0.0054885848913978803 0 0 0 0.04456097187804392 45:0.047131497 101:0.019164886 180:0.21249929 283:0.020511012 294:0.060674357 336:0.032289833 349:0.041022024 429:0.055676091 443:0.034048188 451:0.034293243 461:0.033588638 464:0.039659515 474:0.031688385 571:0.030042311 575:0.060674357 687:0.047131497 710:0.027709479 834:0.045231245 859:0.080808488 904:0.042487078 961:0.019379278 1031:0.047131497 1363:0.028142058 1544:0.026116655 1559:0.077173809 1590:0.052129764 1677:0.043585171 1705:0.12915933 1796:0.0202762 1801:0.052129764 1827:0.089756957 1834:0.042133231 2162:0.14334464 2164:0.038586904 2296:0.060674357 2337:0.060674357 2491:0.015996229 2498:0.19751608 2775:0.070081156 2781:0.049379019 2955:0.055676091 2977:0.21501696 2989:0.0668799 3000:0.030042311 3012:0.037600199 3048:0.087166816 3184:0.021757249 3233:0.14016231 3240:0.018342765 3263:0.16385881 3283:0.10465766 3336:0.098758039 3379:0.044688765 3386:0.016846721 3388:0.040834426 3497:0.055676091 3598:0.060674357 3636:0.018543213 3745:0.060674357 3769:0.052129764 3783:0.039659515 3861:0.032658836 3927:0.031688385 3947:0.052129764 3959:0.30469577 3960:0.047131497 3963:0.24269743 4040:0.040552401 4115:0.045231245 4134:0.099166337 4201:0.055676091 4263:0.060674357 4331:0.053774717 4414:0.13007981 4417:0.19293452 4488:0.045707451 4534:0.032998903 4566:0.0445866 4578:0.12565974 4623:0.014599199 4634:0.067177276 4655:0.028906625 4662:0.025044045 4680:0.022022361 4718:0.052129764 4738:0.031688385 5114:0.060674357 5120:0.060674357 5294:0.047131497 5309:0.052129764 5361:0.15638929 5387:0.047131497 5390:0.052129764 5392:0.049379019 5413:0.043585171 5583:0.094262995 5706:0.031114922 5743:0.04875509 5745:0.037600199 5857:0.062251151 5861:0.060674357 5972:0.33623649 5973:0.055676091 5984:0.055676091 5988:0.087170342 6002:0.022570328 6056:0.042133231 6183:0.039659515 6261:0.062687236 6300:0.052129764 6308:0.060674357 6320:0.038586904 6476:0.029539089 6530:0.031688385 6624:0.047131497 6660:0.052129764 6816:0.12874325 6854:0.028142058 6861:0.060190046 6863:0.021757249 6865:0.13886443 6871:0.022853726 6872:0.026887359 6889:0.045231245 6897:0.031665903 6978:0.098180147 6987:0.045231245 6991:0.084266462 6999:0.060674357 7010:0.035040578 7166:0.034293243 7267:0.038586904 7273:0.033343727 7290:0.065844276 7341:0.052129764 7446:0.045231245 7459:0.10017618 7462:0.058111211 7478:0.093734867 7500:0.055676091 7531:0.034293243 7543:0.017024094 7546:0.14139449 7551:0.018145525 7571:0.060674357 7572:0.032289833 7581:0.026116655 7620:0.045231245 7626:0.031343618 7629:0.034293243 7636:0.047131497 7645:0.031688385 7675:0.039659515 7718:0.04875509 7739:0.12749958 7742:0.038586904 
0 0.079170358249895642 0 0 0 124:0.027380899 151:0.030126012 176:0.043515465 180:0.093065729 270:0.12350476 283:0.084215235 453:0.033532044 474:0.026021581 484:0.033532044 532:0.045719587 533:0.028774304 604:0.042807447 726:0.034598584 744:0.03087619 753:0.049824018 778:0.040548615 859:0.039814549 867:0.035790875 885:0.049824018 912:0.01830661 957:0.031686444 958:0.042807447 969:0.085614894 1040:0.045719587 1041:0.12674578 1051:0.037142583 1198:0.045719587 1331:0.038703016 1438:0.042807447 1480:0.035790875 1544:0.021446238 1565:0.049824018 1702:0.13791006 1796:0.049950679 1827:0.029482322 1837:0.033532044 1852:0.016275266 1899:0.077406031 2046:0.020565441 2053:0.049824018 2064:0.035790875 2162:0.029427613 2163:0.02310944 2164:0.25349155 2234:0.024256641 2272:0.049824018 2273:0.049824018 2319:0.045719587 2402:0.035790875 2436:0.045719587 2451:0.11032805 2472:0.23221809 2491:0.052542552 2503:0.042807447 2571:0.028859333 2588:0.029427613 2623:0.037142583 2656:0.037142583 2715:0.12350476 2733:0.045719587 2771:0.26948875 2779:0.045719587 2781:0.040548615 2792:0.023859618 2804:0.013690449 2865:0.040548615 2958:0.02310944 2980:0.038703016 2989:0.01830661 3006:0.028774304 3051:0.10723119 3068:0.14387152 3117:0.042807447 3263:0.07339423 3283:0.021485456 3352:0.065134481 3370:0.025738468 3379:0.13455609 3386:0.16600845 3409:0.049824018 3520:0.029168431 3577:0.10379575 3579:0.045719587 3598:0.049824018 3623:0.03087619 3636:0.076135736 3773:0.037142583 3806:0.019498901 3808:0.21212378 3841:0.049824018 3846:0.035790875 3861:0.22795713 3870:0.042807447 3890:0.045719587 3932:0.038703016 3953:0.042807447 3959:0.020850609 4034:0.037142583 4044:0.077406031 4122:0.037142583 4128:0.033532044 4212:0.028774304 4221:0.040548615 4230:0.026515472 4243:0.024256641 4293:0.042807447 4377:0.055164026 4397:0.03087619 4489:0.025100694 4534:0.02709774 4566:0.03661322 4578:0.029482322 4623:0.059942188 4624:0.019248943 4634:0.027582013 4655:0.03560592 4658:0.069778307 4680:0.018084122 4707:0.045187637 4829:0.042807447 4944:0.040548615 5004:0.049824018 5184:0.049824018 5197:0.040548615 5212:0.045719587 5250:0.019498901 5288:0.031686444 5342:0.074009618 5381:0.038703016 5385:0.034598584 5389:0.024256641 5406:0.099648036 5438:0.049824018 5535:0.031686444 5536:0.067064088 5559:0.020565441 5884:0.03256724 6002:0.018534098 6079:0.040548615 6095:0.028160615 6184:0.049824018 6208:0.045719587 6261:0.012869234 6350:0.035790875 6352:0.085614894 6363:0.049824018 6381:0.03087619 6427:0.045719587 6516:0.020850609 6530:0.026021581 6593:0.042807447 6616:0.049824018 6706:0.042807447 6723:0.037142583 6725:0.049824018 6739:0.020018131 6744:0.03256724 6751:0.03256724 6854:0.02310944 6861:0.024713158 6865:0.28507858 6871:0.018766815 6875:0.028160615 6878:0.015062546 6880:0.037142583 6897:0.052006239 6904:0.03256724 6911:0.11032805 6956:0.01830661 6978:0.17276289 7006:0.024256641 7053:0.040548615 7149:0.029427613 7167:0.038703016 7169:0.049824018 7185:0.17406186 7251:0.049824018 7273:0.027380899 7287:0.024256641 7402:0.099648036 7446:0.037142583 7449:0.03256724 7459:0.041130883 7484:0.038703016 7496:0.019755187 7499:0.12181718 7521:0.022411041 7531:0.028160615 7551:0.029801156 7553:0.16680487 7581:0.042892476 7624:0.033532044 7626:0.012869234 7673:0.03087619 7687:0.03087619 7701:0.020018131 7719:0.035790875 7727:0.030126012 7734:0.021446238 7739:0.069799297 7746:0.041939074 7747:0.11929809 7749:0.13412818 7769:0.042807447 
0 0.061005379654943286 0 0 0 101:0.023809239 124:0.041424131 180:0.017599709 283:0.02548158 349:0.02548158 382:0.058553183 387:0.15075595 434:0.069168443 504:0.13833689 571:0.037322662 572:0.1478114 690:0.056192429 698:0.058553183 741:0.075377973 769:0.040900376 787:0.058553183 908:0.15075595 965:0.069168443 1001:0.069168443 1077:0.075377973 1166:0.064762712 1198:0.069168443 1373:0.19428814 1476:0.044520572 1478:0.075377973 1500:0.040114841 1852:0.049245187 1899:0.058553183 2375:0.069168443 2437:0.075377973 2491:0.0198727 2532:0.064762712 2561:0.046712102 2584:0.033905311 2593:0.050730101 2622:0.13361259 2713:0.042299309 2715:0.046712102 2771:0.02548158 2785:0.052343653 2825:0.058553183 2939:0.040900376 2958:0.034961908 3000:0.074645324 3003:0.056192429 3102:0.075377973 3256:0.032445675 3263:0.055518487 3269:0.040900376 3283:0.16252504 3359:0.075377973 3379:0.037012325 3446:0.069168443 3472:0.064762712 3544:0.031544558 3563:0.061345362 3572:0.045577169 3661:0.52764581 3783:0.049270465 3808:0.040114841 3861:0.1217198 4059:0.029121423 4226:0.13833689 4241:0.061345362 4248:0.050730101 4280:0.075377973 4298:0.069168443 4414:0.071823515 4476:0.069168443 4489:0.037974445 4534:0.040995744 4623:0.036274237 4624:0.029121423 4655:0.10773527 4758:0.069168443 4772:0.064762712 4941:0.075377973 5029:0.046712102 5099:0.054147452 5155:0.075377973 5223:0.19708186 5323:0.058553183 5342:0.11196799 5540:0.075377973 5814:0.075377973 5992:0.049270465 6031:0.069168443 6050:0.058553183 6109:0.069168443 6117:0.075377973 6122:0.12952542 6285:0.030285115 6291:0.050730101 6337:0.064762712 6641:0.058553183 6691:0.069168443 6861:0.018694074 6863:0.027029825 6865:0.32778108 6878:0.022787888 6897:0.019669855 6906:0.061345362 6946:0.052343653 6956:0.055391564 7076:0.13833689 7112:0.075377973 7166:0.04260375 7273:0.082848262 7478:0.023290051 7496:0.059774623 7548:0.083456786 7610:0.064762712 7626:0.019469661 7647:0.064762712 7739:0.070398838 
0 0.192069068154505 0 0 0 20:0.069314141 40:0.066772914 73:0.061272257 101:0.084364819 121:0.066772914 122:0.047966044 124:0.018347601 140:0.066772914 142:0.049777569 143:0.061272257 176:0.029159174 180:0.14031493 197:0.034242373 202:0.066772914 264:0.076410126 273:0.057369479 283:0.045145268 336:0.035535379 349:0.022572634 431:0.061272257 443:0.093676178 450:0.061272257 492:0.03696473 533:0.038562609 581:0.03696473 647:0.066772914 696:0.051868822 859:0.10671694 891:0.031464073 904:0.070136368 1012:0.11831447 1075:0.061272257 1133:0.054342249 1311:0.1086845 1363:0.092912097 1373:0.057369479 1381:0.061272257 1500:0.035535379 1704:0.040374134 1796:0.022314221 1802:0.066772914 1807:0.047966044 1827:0.059267215 1966:0.057369479 1980:0.054342249 2030:0.051868822 2072:0.043645808 2140:0.054342249 2163:0.061941398 2171:0.089877628 2172:0.066772914 2265:0.057369479 2299:0.061272257 2322:0.066123903 2369:0.049777569 2391:0.054342249 2491:0.035208113 2572:0.042465387 2584:0.030034722 2713:0.074940943 2716:0.041379504 2741:0.028336722 2771:0.045145268 2775:0.077125217 2783:0.042465387 2792:0.031976069 2804:0.036695202 2809:0.059179771 2828:0.066772914 2930:0.099555139 2955:0.061272257 2979:0.061272257 3012:0.041379504 3048:0.095928208 3051:0.028741716 3068:0.077125217 3079:0.058318347 3082:0.051868822 3155:0.066772914 3184:0.095776533 3214:0.051868822 3235:0.066772914 3240:0.060559351 3263:0.098361127 3269:0.036231238 3283:0.014397138 3370:0.051741085 3376:0.13354583 3379:0.14754169 3386:0.055620102 3520:0.039090808 3544:0.027943469 3546:0.22947792 3766:0.054342249 3808:0.035535379 3848:0.024534065 3850:0.051868822 3861:0.12579515 3889:0.057369479 3945:0.041379504 4014:0.038562609 4027:0.061272257 4111:0.03696473 4112:0.066772914 4134:0.14031493 4230:0.035535379 4243:0.065016297 4248:0.17975526 4334:0.054342249 4347:0.054342249 4377:0.03696473 4414:0.095436343 4461:0.061272257 4510:0.11663669 4534:0.01815786 4547:0.066772914 4566:0.024534065 4578:0.019755738 4623:0.064266427 4645:0.061272257 4655:0.031812114 4658:0.023378789 4680:0.024235893 4726:0.067278656 4794:0.057369479 5080:0.061272257 5148:0.049777569 5154:0.066772914 5223:0.043645808 5286:0.061272257 5342:0.033061952 5361:0.057369479 5385:0.046368165 5532:0.061272257 5551:0.042465387 5559:0.082683884 5615:0.051868822 5631:0.057369479 5706:0.068484746 5743:0.026827803 5865:0.042465387 5966:0.061272257 5972:0.13455731 5973:0.061272257 5988:0.047966044 6002:0.049677876 6030:0.03696473 6032:0.057369479 6205:0.061272257 6261:0.068988114 6285:0.053655606 6297:0.041379504 6381:0.041379504 6397:0.049777569 6466:0.12254451 6609:0.047966044 6660:0.057369479 6720:0.054342249 6739:0.026827803 6750:0.037740158 6752:0.099555139 6854:0.030970699 6857:0.049777569 6861:0.066239923 6863:0.0718324 6865:0.22923315 6866:0.039438157 6867:0.023658517 6878:0.02018645 6897:0.034848736 6904:0.043645808 6956:0.073602194 6978:0.18522603 6981:0.061272257 7054:0.057369479 7062:0.066772914 7106:0.061272257 7142:0.047966044 7151:0.080748268 7267:0.042465387 7273:0.055042803 7291:0.066772914 7441:0.042465387 7444:0.051868822 7446:0.049777569 7478:0.020631287 7490:0.051868822 7505:0.057369479 7516:0.057369479 7531:0.037740158 7543:0.037470471 7551:0.03993877 7568:0.025470042 7581:0.028741716 7609:0.057369479 7626:0.068988114 7645:0.069746954 7661:0.25580855 7673:0.041379504 7691:0.087291617 7708:0.030034722 7718:0.053655606 7720:0.044938814 7739:0.093543287 
0.23606227854455886 0.094137901578594599 0 0 0 101:0.02503625 139:0.056937946 180:0.037013424 197:0.020323652 207:0.029544156 349:0.013397388 443:0.011119802 469:0.066340419 478:0.036366523 548:0.020323652 634:0.025904812 687:0.030785363 710:0.072397138 717:0.16021469 877:0.079262584 957:0.025204204 1327:0.023962996 1338:0.026672241 1342:0.029544156 1389:0.027520594 1476:0.023407472 1559:0.025204204 1668:0.072733046 1702:0.021939435 1705:0.021091081 1742:0.14546609 1749:0.061570727 1796:0.013244014 1852:0.012945761 1860:0.31085774 1879:0.036366523 1910:0.028468973 2159:0.016585105 2162:0.023407472 2165:0.039631292 2233:0.039631292 2260:0.098238828 2365:0.039631292 2395:0.0322534 2402:0.11387589 2491:0.010448421 2593:0.026672241 2716:0.024559707 2804:0.032669195 2927:0.028468973 2932:0.15852517 2939:0.02150409 2978:0.029544156 2999:0.082925524 3000:0.019623044 3012:0.024559707 3036:0.027520594 3054:0.25748219 3068:0.022887813 3079:0.017306654 3086:0.10537375 3101:0.023962996 3109:0.029544156 3184:0.014211405 3229:0.025904812 3283:0.051270236 3370:0.061419097 3379:0.038919758 3386:0.011003945 3431:0.0322534 3520:0.023201312 3544:0.016585105 3546:0.13620053 3594:0.029544156 3636:0.060560302 3641:0.029544156 3668:0.59581067 3861:0.03199816 3863:0.036366523 3879:0.034050132 3960:0.030785363 4040:0.052976055 4178:0.039631292 4230:0.021091081 4237:0.036366523 4311:0.11387589 4390:0.053344482 4488:0.044782807 4534:0.010777116 4566:0.058246173 4623:0.12396681 4655:0.094406183 4662:0.032716551 4707:0.023962264 4756:0.026672241 4765:0.036366523 4848:0.1290136 5000:0.081294609 5223:0.025904812 5228:0.079262584 5229:0.039631292 5385:0.027520594 5565:0.030785363 5589:0.039631292 5598:0.028468973 5628:0.030785363 5754:0.0322534 5887:0.0322534 6095:0.022399669 6121:0.034050132 6201:0.039631292 6261:0.010236516 6321:0.039631292 6428:0.039631292 6476:0.019294349 6612:0.027520594 6724:0.072733046 6861:0.029486212 6865:0.25396981 6875:0.11199835 6885:0.018381837 6978:0.13742 7106:0.036366523 7149:0.023407472 7151:0.023962996 7185:0.20767985 7468:0.034050132 7488:0.034050132 7551:0.011852299 7626:0.092128645 7661:0.018978548 7673:0.049119414 7708:0.017826312 7739:0.074026849 7746:0.044479208 7747:0.018978548 
0.2329141706226841 0 0.10743651084064136 0 0 180:0.2364151 197:0.1730838 241:0.27862635 921:0.11718782 1796:0.11279096 1809:0.24245239 1974:0.30971088 2281:0.23437565 2387:0.18684441 2713:0.094700383 3283:0.036386371 3379:0.082863796 3861:0.090836089 3959:0.28248988 4404:0.22715075 4655:0.080399827 4658:0.059086001 6261:0.043588995 6355:0.30971088 6739:0.06780281 6865:0.038623243 6867:0.11958593 6919:0.24245239 7006:0.32863575 7088:0.26217964 7739:0.15761007 7746:0.14205057 
0 0.065352781379073827 0.069234266559433724 0.23444492086896038 0.061445230402764194 20:0.052401707 27:0.050480532 80:0.029153453 84:0.032996368 124:0.013870844 139:0.036262479 150:0.025431437 176:0.066133279 180:0.14143804 197:0.025887341 241:0.020836425 264:0.057766295 276:0.050862874 336:0.026864858 443:0.04249169 452:0.046322018 464:0.032996368 474:0.026364458 526:0.032103965 550:0.04108291 574:0.092644037 616:0.02981537 675:0.050480532 694:0.12324873 715:0.039212992 859:0.080678343 867:0.036262479 891:0.071360813 896:0.086743012 904:0.070697752 913:0.04108291 961:0.048370168 1041:0.032103965 1250:0.04108291 1331:0.039212992 1363:0.023413945 1452:0.037631998 1500:0.026864858 1544:0.043457655 1780:0.050480532 1815:0.033973884 1827:0.1642894 1852:0.049469159 1899:0.039212992 1970:0.046322018 1981:0.032103965 2072:0.032996368 2162:0.02981537 2163:0.046827891 2292:0.032996368 2324:0.032103965 2326:0.046322018 2334:0.050480532 2491:0.013308722 2713:0.056655587 2733:0.046322018 2736:0.025887341 2739:0.033973884 2741:0.064267952 2771:0.017064982 2804:0.013870844 2809:0.044740092 2857:0.04108291 2885:0.061045944 2917:0.022706344 2958:0.046827891 2989:0.03709566 3006:0.11661381 3007:0.02981537 3012:0.031283035 3014:0.043371506 3048:0.024174008 3068:0.029153453 3106:0.028531677 3109:0.037631998 3184:0.054305519 3233:0.087460359 3240:0.061044079 3263:0.11154198 3283:0.032652844 3352:0.032996368 3370:0.026077615 3379:0.099148427 3386:0.028032647 3388:0.067947768 3429:0.050480532 3520:0.029552773 3598:0.10096106 3636:0.32398359 3721:0.02739093 3765:0.035054478 3806:0.019755831 3861:0.10868746 3877:0.092644037 3882:0.05963074 3887:0.025431437 3930:0.025887341 3949:0.031283035 3950:0.06256607 3953:0.043371506 3959:0.02112535 4059:0.01950258 4116:0.036262479 4134:0.10607853 4137:0.12209189 4166:0.050480532 4168:0.043371506 4178:0.050480532 4197:0.050480532 4243:0.024576262 4294:0.050480532 4359:0.28043582 4380:0.046322018 4414:0.19240046 4454:0.039212992 4488:0.019014099 4534:0.013727399 4566:0.03709566 4623:0.036439215 4624:0.03900516 4644:0.026864858 4655:0.024050058 4658:0.035348876 4680:0.036644821 4707:0.045783059 4847:0.050480532 4926:0.037631998 4943:0.043371506 5144:0.046322018 5250:0.059267493 5295:0.20192213 5361:0.043371506 5486:0.04108291 5665:0.13972726 5706:0.025887341 5743:0.22310094 5753:0.050480532 5882:0.050480532 5943:0.050480532 6002:0.03755663 6033:0.046322018 6035:0.04108291 6080:0.046322018 6099:0.039212992 6102:0.046322018 6197:0.050480532 6214:0.050480532 6255:0.050480532 6261:0.026077615 6285:0.020281903 6290:0.043371506 6292:0.030522972 6293:0.16433164 6476:0.024576262 6530:0.079093374 6634:0.046322018 6692:0.04108291 6739:0.040563806 6745:0.039212992 6750:0.14265839 6752:0.075263997 6771:0.043371506 6854:0.046827891 6861:0.075116384 6862:0.039212992 6863:0.01810184 6865:0.057766992 6871:0.038028198 6875:0.028531677 6878:0.01526102 6886:0.13198547 6904:0.032996368 6956:0.01854783 6978:0.17503933 6991:0.035054478 7002:0.1514416 7025:0.050480532 7051:0.036262479 7080:0.082165821 7088:0.039212992 7190:0.04108291 7273:0.027741688 7316:0.046322018 7449:0.032996368 7459:0.020836425 7462:0.096696034 7487:0.051774683 7496:0.020015495 7499:0.077138951 7531:0.028531677 7543:0.014163897 7551:0.030193835 7556:0.04108291 7581:0.021728828 7626:0.05215523 7652:0.029153453 7655:0.055890903 7719:0.036262479 7724:0.050480532 7730:0.039212992 7739:0.20037055 7746:0.056655587 7747:0.096696034 7749:0.033973884 
0 0.12311949242125381 0.0053491921432358659 0.012151775004827838 0.01277453710277872 92:0.021518773 169:0.1502755 283:0.0084667909 859:0.0066714267 1216:0.050091832 1239:0.10018366 1558:0.11459804 1642:0.019455526 1796:0.025109587 1839:0.021518773 2046:0.010337992 2155:0.70128565 2309:0.025045916 2451:0.013865136 2771:0.0084667909 2809:0.022197797 3234:0.025045916 4036:0.061149858 4090:0.22541325 4134:0.12280534 4176:0.025045916 4192:0.12522958 4250:0.050091832 4293:0.043037545 4386:0.025045916 4418:0.12522958 4474:0.068948009 4534:0.17708207 4697:0.043037545 5069:0.10018366 5122:0.10018366 5265:0.025045916 5273:0.38263015 5280:0.17532141 5282:0.1502755 5342:0.012401239 5685:0.025045916 5835:0.142683 5893:0.050091832 5915:0.22541325 6261:0.012938409 6280:0.025045916 6309:0.020383286 6723:0.018671116 6820:0.10018366 6823:0.045965339 7212:0.043037545 7411:0.025045916 7734:0.010780758 
0 0 0.064103408752420141 0.077973066873199853 0 101:0.030394121 124:0.10576147 180:0.022467232 188:0.096225134 241:0.03971804 254:0.043282447 264:0.036704377 276:0.048476974 347:0.15362801 443:0.1349949 500:0.082674028 601:0.082674028 626:0.054386599 640:0.078311547 734:0.096225134 901:0.096225134 904:0.067381427 960:0.064760441 1123:0.053269146 1327:0.058182371 1387:0.096225134 1480:0.069122923 1825:0.053269146 1827:0.11387842 1844:0.15662309 2046:0.1985902 2159:0.040268784 2163:0.044631265 2178:0.088298245 2222:0.096225134 2231:0.050255482 2239:0.096225134 2491:0.07610658 2543:0.078311547 2584:0.043282447 2616:0.078311547 2713:0.02699898 2715:0.11926238 2736:0.098692022 2739:0.064760441 2771:0.065057958 2804:0.079321101 3000:0.047644929 3012:0.05963119 3089:0.092160169 3106:0.054386599 3184:0.03450542 3240:0.08727089 3256:0.041419122 3263:0.070873143 3266:0.088298245 3283:0.1244846 3370:0.049708707 3379:0.070873143 3386:0.10687071 3579:0.088298245 3636:0.058816383 3701:0.096225134 3806:0.03765823 3837:0.078311547 3927:0.050255482 3949:0.05963119 4040:0.032156585 4111:0.053269146 4134:0.11233616 4170:0.088298245 4230:0.051209336 4414:0.045843813 4488:0.036244353 4510:0.042020712 4534:0.026166934 4644:0.051209336 4655:0.091687625 4658:0.033690714 4726:0.048476974 5029:0.05963119 5144:0.088298245 5155:0.096225134 5359:0.088298245 5364:0.096225134 5482:0.096225134 5573:0.19245027 5608:0.082674028 5743:0.07732204 5794:0.064760441 5950:0.17659649 5959:0.19245027 6151:0.088298245 6198:0.082674028 6230:0.064760441 6261:0.049708707 6285:0.07732204 6291:0.12952088 6299:0.062897116 6355:0.088298245 6405:0.096225134 6420:0.078311547 6444:0.078311547 6544:0.056833553 6739:0.07732204 6861:0.023864263 6865:0.13213735 6867:0.068187646 6871:0.036244353 6877:0.040268784 6878:0.029090297 6888:0.066820251 6903:0.062897116 6978:0.088975199 7022:0.096225134 7166:0.054386599 7230:0.064760441 7273:0.10576147 7462:0.046080085 7478:0.029731341 7499:0.058816383 7516:0.082674028 7543:0.02699898 7551:0.057554976 7557:0.061196034 7581:0.041419122 7626:0.024854354 7645:0.050255482 7673:0.05963119 7687:0.05963119 7701:0.1933051 7718:0.03866102 7739:0.26960678 7746:0.21599184 7749:0.064760441 7750:0.096225134 
0 0 0 0.0072480835484984444 0 20:0.012033813 43:0.011702921 90:0.014940103 100:0.013507627 101:0.038447854 124:0.014334192 143:0.03191292 150:0.026280961 159:0.03191292 180:0.13398247 241:0.0071774849 254:0.0078216123 283:0.0058783428 342:0.052166807 349:0.0058783428 361:0.5308221 402:0.01595646 413:0.012963025 437:0.017388936 443:0.0048790114 455:0.052166807 458:0.017388936 460:0.014940103 474:0.0090817162 483:0.017388936 548:0.026752094 571:0.0086099605 572:0.011366198 606:0.013507627 622:0.010776009 710:0.0079413837 726:0.012075151 730:0.017388936 749:0.01595646 835:0.01595646 847:0.029880205 854:0.034098594 857:0.014940103 859:0.032422973 891:0.0081938425 900:0.010042436 921:0.012075151 944:0.012963025 957:0.011058794 960:0.046811684 961:0.033323965 1002:0.014940103 1040:0.01595646 1059:0.011702921 1063:0.014151754 1171:0.01595646 1223:0.011058794 1363:0.0080653585 1376:0.01595646 1387:0.034777871 1534:0.017388936 1544:0.022454667 1546:0.020540891 1825:0.0096263181 1827:0.020579079 1852:0.01704055 1888:0.014151754 2164:0.011058794 2234:0.0084657397 2285:0.017388936 2365:0.017388936 2491:0.050428739 2494:0.01595646 2543:0.014151754 2571:0.015108168 2606:0.02592605 2622:0.0077057685 2623:0.012963025 2656:0.02592605 2713:0.053669125 2714:0.012963025 2715:0.010776009 2736:0.0089173647 2741:0.014758842 2771:0.023513371 2775:0.010042436 2789:0.027762264 2793:0.42684066 2795:0.017388936 2804:0.047780639 2849:0.01595646 2885:0.010514192 2906:0.028303509 2907:0.014151754 2917:0.046929674 2956:0.014940103 2989:0.0063891367 2990:0.029880205 2999:0.0072770103 3000:0.0086099605 3048:0.033308704 3051:0.014969778 3090:0.014940103 3091:0.014151754 3120:0.020084872 3135:0.070217526 3137:0.034777871 3240:0.0052569353 3263:0.029884291 3264:0.029484763 3283:0.029994307 3370:0.058388901 3379:0.072576136 3386:0.03379724 3406:0.014940103 3636:0.026571912 3771:0.020084872 3783:0.011366198 3831:0.017388936 3839:0.017388936 3846:0.012491269 3848:0.01916741 3861:0.004679921 3891:0.010514192 3927:0.0090817162 3930:0.0089173647 3932:0.040522881 3959:0.050939072 3976:0.029880205 4014:0.010042436 4016:0.020540891 4040:0.023244188 4059:0.0067180177 4134:0.077141424 4243:0.0084657397 4315:0.040969212 4325:0.029880205 4334:0.084910526 4366:0.01595646 4372:0.011366198 4375:0.01595646 4414:0.049706875 4431:0.0087603202 4460:0.034777871 4488:0.0065497516 4489:0.01752064 4490:0.017388936 4512:0.030374411 4514:0.0090817162 4516:0.01595646 4534:0.014185955 4562:0.017388936 4566:0.012778273 4578:0.051447697 4587:0.014940103 4593:0.012491269 4623:0.012552149 4624:0.040308106 4644:0.0092540879 4655:0.016568958 4656:0.011366198 4658:0.006088281 4662:0.0071774849 4704:0.0098282542 4707:0.0052569353 4757:0.017388936 4778:0.011702921 4859:0.017388936 5046:0.012491269 5098:0.03191292 5144:0.06382584 5246:0.011366198 5275:0.017388936 5359:0.01595646 5385:0.024150303 5389:0.016931479 5472:0.021028383 5551:0.022117587 5706:0.053504188 5743:0.020959409 5744:0.02592605 5759:0.012491269 5857:0.0059469454 5904:0.017388936 5972:0.096363522 6002:0.0064685315 6012:0.01595646 6044:0.20866723 6085:0.014940103 6118:0.017388936 6119:0.014151754 6204:0.034777871 6219:0.017388936 6257:0.017388936 6261:0.044914539 6285:0.013972939 6297:0.010776009 6300:0.014940103 6382:0.014151754 6397:0.012963025 6466:0.01595646 6516:0.0072770103 6536:0.017388936 6561:0.011702921 6648:0.03191292 6739:0.0069864697 6791:0.011058794 6817:0.069555743 6855:0.014151754 6861:0.047437871 6863:0.024942029 6865:0.26664512 6867:0.030805636 6871:0.0065497516 6877:0.036385052 6878:0.042055482 6885:0.016130717 6886:0.022732396 6897:0.031763456 6950:0.010270445 6956:0.0063891367 6978:0.11255155 6996:0.0090817162 6998:0.017388936 7006:0.016931479 7007:0.030127308 7026:0.010270445 7062:0.017388936 7149:0.010270445 7166:0.019656508 7200:0.46314318 7212:0.014940103 7273:0.019112256 7287:0.0084657397 7290:0.018870606 7351:0.017388936 7459:0.01435497 7463:0.029880205 7478:0.021491116 7489:0.012963025 7497:0.01595646 7499:0.079715736 7510:0.01595646 7528:0.034098594 7543:0.0048790114 7548:0.0096263181 7551:0.046803666 7553:0.014554021 7557:0.011058794 7558:0.01595646 7568:0.013265766 7579:0.012963025 7581:0.0074848891 7590:0.029880205 7626:0.035931631 7629:0.0098282542 7653:0.012491269 7655:0.0096263181 7716:0.017388936 7718:0.013972939 7734:0.022454667 7738:0.013507627 7739:0.089321648 7746:0.029274068 7747:0.008327176 
0 0.084657945502291179 0.2397981027629528 0 0 20:0.01491601 101:0.013616123 124:0.023689798 180:0.04025997 197:0.022106293 283:0.043717525 340:0.12932237 347:0.022941036 349:0.043717525 382:0.30137066 548:0.022106293 581:0.071591402 650:0.043107457 653:0.043107457 699:0.039556327 845:0.043107457 859:0.01148244 891:0.02031267 894:0.033485629 904:0.045278846 925:0.029934498 1122:0.043107457 1172:0.37715254 1176:0.043107457 1237:0.039556327 1503:0.035082431 1728:0.039556327 1796:0.057622725 1827:0.012753968 1844:0.035082431 1899:0.033485629 1917:0.039556327 1925:0.043107457 2159:0.018039828 2260:0.026713904 2491:0.056824397 2571:0.012484465 2736:0.022106293 2739:0.029011734 2790:0.027414931 2804:0.035534697 3002:0.033485629 3006:0.024895364 3007:0.025460603 3089:0.020643206 3240:0.039096087 3256:0.092775815 3263:0.074083648 3269:0.023390271 3283:0.11153457 3370:0.044537552 3379:0.084667027 3386:0.01196913 3520:0.063090901 3636:0.013174441 3668:0.33812389 3806:0.016870338 3808:0.022941036 3853:0.039556327 3861:0.023203202 3907:0.037036759 3933:0.10685562 3959:0.23451777 4011:0.11111028 4016:0.025460603 4040:0.072028406 4134:0.090584932 4139:0.039556327 4336:0.027414931 4414:0.03080604 4459:0.016654076 4492:0.024364403 4534:0.02344481 4566:0.031677549 4623:0.010372328 4641:0.037036759 4655:0.02053736 4680:0.03129256 4743:0.17242983 5001:0.037036759 5060:0.30966062 5063:0.039556327 5223:0.028176991 5316:0.079112653 5371:0.086214914 5551:0.027414931 5665:0.023863801 5743:0.05195872 5759:0.030966062 5857:0.02948515 5895:0.14814704 5929:0.043107457 5941:0.17242983 5943:0.086214914 6000:0.039556327 6153:0.039556327 6261:0.011134388 6285:0.10391744 6345:0.070164863 6431:0.11111028 6471:0.070164863 6508:0.033485629 6578:0.043107457 6816:0.018293706 6852:0.039556327 6861:0.053454209 6865:0.19731869 6871:0.016236942 6889:0.032135552 6897:0.011248875 6922:0.039556327 6974:0.037036759 6978:0.019929796 7010:0.024895364 7093:0.037036759 7273:0.047379596 7360:0.11866898 7499:0.15809329 7543:0.084666045 7551:0.11602706 7609:0.037036759 7626:0.05567194 7718:0.034639146 7721:0.17242983 7727:0.026064854 7739:0.19123486 7746:0.036285448 
0.013633031371833476 0.16438740643754973 0 0.024369054807593271 0 101:0.0070604313 102:0.017363458 151:0.013515529 180:0.07306666 264:0.017052557 276:0.011261005 349:0.022669051 406:0.022352709 484:0.015043589 551:0.022352709 571:0.011067724 616:0.013202204 663:0.30766988 713:0.18460193 859:0.011908086 912:0.016425906 925:0.015522074 961:0.028557657 1178:0.036382911 1186:0.019204842 1331:0.017363458 1395:0.022352709 1405:0.022352709 1406:0.020511325 1610:0.018191456 1809:0.20874068 1810:0.62587586 1811:0.38971518 1827:0.019840123 1862:0.022352709 1870:0.022352709 1899:0.034726917 1902:0.020511325 2013:0.020511325 2166:0.020511325 2241:0.014610746 2387:0.012374207 2412:0.013202204 2472:0.069453833 2491:0.0058930835 2571:0.0064736276 2584:0.030163012 2605:0.019204842 2628:0.017363458 2632:0.022352709 2760:0.020511325 2804:0.0061419903 2857:0.018191456 2885:0.013515529 2944:0.013202204 2999:0.0093542756 3079:0.0097612414 3086:0.029716276 3089:0.010704217 3108:0.017363458 3179:0.042646774 3263:0.010975696 3283:0.024097723 3370:0.023094263 3379:0.0054878482 3386:0.024825634 3520:0.01962889 3577:0.015522074 3636:0.013662808 3789:0.020511325 3861:0.024063328 3927:0.011674145 3945:0.013852084 4111:0.012374207 4134:0.03653333 4230:0.011895722 4347:0.018191456 4348:0.030087177 4349:0.090957278 4372:0.029221492 4404:0.015043589 4414:0.031947997 4431:0.04504402 4488:0.016838833 4510:0.029283724 4512:0.019522483 4578:0.013226749 4593:0.032113951 4595:0.020511325 4623:0.010756823 4634:0.012374207 4655:0.042597329 4658:0.0078262165 4707:0.0067575583 4859:0.022352709 5007:0.018191456 5096:0.052090375 5098:0.041022651 5099:0.016056975 5250:0.0087478545 5559:0.0092263401 5604:0.013852084 5610:0.020511325 5689:0.020511325 5706:0.011462879 5716:0.010532823 5836:0.019204842 5857:0.0076445358 5920:0.020511325 5933:0.018191456 5972:0.011261005 6002:0.033260047 6004:0.018191456 6261:0.011547132 6280:0.022352709 6285:0.0089807985 6397:0.016663396 6498:0.029221492 6516:0.0093542756 6530:0.011674145 6855:0.018191456 6861:0.044348574 6865:0.23532812 6871:0.016838833 6897:0.0058329315 6917:0.018708551 6919:0.016056975 6978:0.020668579 6984:0.022352709 7177:0.018191456 7273:0.018425971 7462:0.010704217 7487:0.011462879 7499:0.006831404 7528:0.014610746 7543:0.018815261 7548:0.024748414 7553:0.018708551 7568:0.0085262783 7581:0.0096214946 7626:0.034641395 7676:0.37999606 7701:0.026942396 7716:0.044705419 7718:0.06286559 7727:0.013515529 7734:0.057728967 7739:0.0052190471 7746:0.018815261 
0 0.14171259554921681 0.019811377147427957 0.21681636461377599 0.0064223384719253864 81:0.1549652 83:0.038741301 91:0.077482602 93:0.030094023 267:0.077482602 339:0.48150437 347:0.082469775 443:0.021740174 459:0.077482602 484:0.026073268 500:0.1331419 574:0.071099696 696:0.030094023 859:0.020638874 891:0.018255293 1064:0.1937065 1142:0.033285476 1149:0.077482602 1221:0.016675796 1261:0.14219939 1327:0.023424865 1328:0.038741301 1495:0.2324478 1533:0.031529093 1693:0.030094023 1700:0.038741301 1725:0.030094023 1812:0.030094023 1827:0.057310888 1883:0.038741301 2031:0.14219939 2072:0.025323073 2124:0.077482602 2159:0.016212657 2234:0.01886106 2324:0.024638199 2335:0.033285476 2384:0.077482602 2584:0.017425991 2713:0.032610262 2736:0.099336243 2771:0.013096526 2792:0.018552351 2804:0.010645184 2902:0.077482602 2920:0.077482602 2977:0.022881815 3048:0.018552351 3059:0.025323073 3167:0.14782919 3184:0.013892263 3256:0.016675796 3263:0.019022873 3283:0.0083531453 3379:0.066580056 3386:0.010756832 3391:0.19971286 3457:0.1937065 3508:0.026073268 3520:0.011340143 3636:0.011840063 3668:0.15193844 3723:0.026902571 3796:0.1549652 3806:0.075808095 3837:0.031529093 3840:0.077482602 3864:0.030094023 3906:0.077482602 3933:0.024008175 3941:0.038741301 4000:0.028880689 4055:0.1549652 4134:0.099501111 4372:0.025323073 4386:0.1549652 4414:0.0092286124 4494:0.077482602 4528:0.038741301 4534:0.052675483 4578:0.022924355 4623:0.018643525 4624:0.014967261 4655:0.0092286124 4707:0.011712074 4726:0.078069459 4865:0.038741301 5012:0.024008175 5014:0.035549848 5104:0.035549848 5216:0.1549652 5273:0.13451285 5291:0.1549652 5547:0.038741301 5746:0.035549848 5835:0.031529093 5857:0.013249367 5927:0.030094023 5972:0.019517365 6040:0.11710419 6261:0.020013274 6397:0.086642068 6530:0.060700235 6783:0.060188047 6796:0.035549848 6829:0.038741301 6863:0.013892263 6866:0.022881815 6867:0.027453099 6871:0.014592376 6938:0.038741301 6940:0.077482602 6978:0.017911198 6989:0.1549652 7157:0.17328414 7185:0.016918002 7216:0.038741301 7267:0.024638199 7273:0.010645184 7441:0.024638199 7459:0.031981842 7489:0.028880689 7543:0.054350436 7557:0.024638199 7581:0.016675796 7597:0.014777587 7626:0.050033185 7645:0.020233412 7655:0.021446746 7658:0.21329909 7701:0.015565353 7711:0.038741301 7727:0.023424865 7732:0.038741301 7734:0.066703183 7739:0.063318889 7746:0.07609061 
0 0 0.0063471108343450813 0 0 102:0.090824277 180:0.054599282 241:0.048260873 264:0.044599011 270:0.072457083 443:0.065612218 453:0.078689569 548:0.059959696 668:0.11692191 749:0.10729005 859:0.12457695 891:0.055094786 904:0.081874295 924:0.11692191 1063:0.095155341 1137:0.11692191 1408:0.070696642 1448:0.11692191 1569:0.10729005 1955:0.11692191 1980:0.095155341 1981:0.074358505 2046:0.048260873 2250:0.095155341 2256:0.081192417 2324:0.14871701 2339:0.10045614 2457:0.17432483 2491:0.061650743 2571:0.067724129 2595:0.095155341 2741:0.049618677 2802:0.10729005 2804:0.032127346 2809:0.051813013 2845:0.090824277 2885:0.070696642 3000:0.057892733 3036:0.081192417 3101:0.070696642 3184:0.041927086 3206:0.11692191 3256:0.050327836 3263:0.057411356 3283:0.050419871 3379:0.086117034 3386:0.064928606 3467:0.11692191 3520:0.068449489 3636:0.035733511 3681:0.087162414 3695:0.11692191 3771:0.067524592 3804:0.090824277 3861:0.22027208 3864:0.18164855 3930:0.059959696 4040:0.039073048 4041:0.087162414 4134:0.081898924 4212:0.067524592 4230:0.062223797 4247:0.090824277 4282:0.090824277 4297:0.10729005 4315:0.055094786 4331:0.051813013 4414:0.11140844 4417:0.074358505 4488:0.088080083 4510:0.05105882 4512:0.05105882 4534:0.031795101 4566:0.085920158 4578:0.034593048 4644:0.062223797 4660:0.070696642 4680:0.042437968 4707:0.035347241 4718:0.10045614 4778:0.078689569 5594:0.062223797 5615:0.090824277 5620:0.10729005 5706:0.059959696 5743:0.046976502 5857:0.039986817 5865:0.074358505 6012:0.10729005 6040:0.05890374 6149:0.10729005 6261:0.090600604 6307:0.10729005 6429:0.090824277 6593:0.10045614 6624:0.090824277 6753:0.10729005 6865:0.18731811 6871:0.044040042 6877:0.09786015 6902:0.078689569 6978:0.18919706 7002:0.11692191 7149:0.13811542 7152:0.078689569 7166:0.066084449 7185:0.05105882 7273:0.032127346 7287:0.056923003 7303:0.10729005 7449:0.076425468 7474:0.10729005 7478:0.036126166 7482:0.072457083 7487:0.059959696 7496:0.046359452 7499:0.035733511 7502:0.10729005 7543:0.032806109 7572:0.062223797 7581:0.050327836 7626:0.060400403 7655:0.064726645 7739:0.19109749 7743:0.072457083 7746:0.065612218 
0.030304861760147229 0 0 0 0 20:0.028477112 43:0.055388163 53:0.082299214 85:0.21212777 93:0.063929564 114:0.066978122 180:0.21137295 197:0.084409088 210:0.082299214 211:0.063929564 264:0.12556974 283:0.083463934 361:0.052339605 413:0.061352045 424:0.082299214 431:0.075519523 443:0.023091626 469:0.034440994 492:0.045559914 526:0.052339605 533:0.047529338 571:0.040749646 646:0.082299214 678:0.075519523 696:0.063929564 744:0.051001229 748:0.075519523 814:0.082299214 859:0.021921864 867:0.059119296 908:0.082299214 912:0.030238822 950:0.082299214 961:0.052572436 1210:0.066978122 1476:0.048608472 1775:0.082299214 1796:0.027502811 1834:0.11429975 1930:0.075519523 1934:0.075519523 2008:0.070709255 2054:0.075519523 2159:0.034440994 2171:0.055388163 2234:0.040067071 2271:0.052339605 2281:0.057149873 2321:0.061352045 2387:0.045559914 2421:0.070709255 2491:0.065092263 2571:0.047669788 2572:0.052339605 2616:0.066978122 2713:0.046183252 2748:0.070709255 2771:0.027821311 2804:0.022613857 2885:0.049762086 2956:0.070709255 2958:0.076344255 3089:0.03941127 3090:0.070709255 3097:0.075519523 3106:0.046515647 3147:0.053794503 3240:0.024880283 3256:0.035424853 3263:0.14143785 3283:0.053234451 3336:0.066978122 3340:0.082299214 3370:0.12754425 3379:0.080821628 3388:0.055388163 3562:0.070709255 3575:0.049762086 3732:0.063929564 3734:0.075519523 3771:0.047529338 3861:0.066448084 3884:0.082299214 3930:0.042204544 3945:0.051001229 4016:0.048608472 4040:0.055005621 4100:0.075519523 4134:0.15372579 4194:0.066978122 4230:0.043798204 4281:0.075519523 4331:0.036470242 4397:0.051001229 4414:0.078418384 4430:0.075519523 4488:0.061997976 4492:0.046515647 4534:0.022379996 4572:0.043798204 4578:0.04869884 4623:0.099012386 4624:0.031795366 4655:0.039209192 4658:0.028814917 4662:0.033969955 4707:0.024880283 4758:0.075519523 5008:0.057149873 5078:0.075519523 5147:0.066978122 5252:0.082299214 5309:0.070709255 5342:0.12224894 5352:0.063929564 5665:0.045559914 5927:0.063929564 6002:0.061229171 6210:0.15103905 6261:0.14880163 6384:0.075519523 6750:0.046515647 6752:0.061352045 6816:0.034925688 6854:0.038172127 6861:0.061231718 6863:0.029511717 6865:0.22602827 6866:0.19443389 6867:0.17495813 6872:0.036470242 6877:0.034440994 6878:0.074640849 6885:0.076344255 6887:0.035424853 6897:0.085903801 6904:0.053794503 6917:0.034440994 6978:0.26634477 7006:0.040067071 7007:0.047529338 7030:0.055388163 7151:0.049762086 7233:0.070709255 7273:0.022613857 7294:0.13395624 7466:0.053794503 7487:0.042204544 7496:0.032631579 7543:0.046183252 7551:0.073838234 7553:0.034440994 7557:0.052339605 7568:0.094177308 7581:0.035424853 7597:0.031392436 7624:0.055388163 7626:0.04251475 7669:0.070709255 7673:0.051001229 7687:0.10200246 7739:0.11529434 7746:0.11545813 7747:0.07882254 
0.32176698163524786 0.028360427866710232 0.071619645798445583 0.23713158030139322 0.014380241555344966 20:0.037274867 101:0.034026471 124:0.11840084 176:0.023521268 180:0.15091352 202:0.10772484 234:0.54367841 241:0.15562637 264:0.10272714 429:0.04942531 443:0.030225582 451:0.030443125 492:0.059635252 524:0.026669447 538:0.043835214 751:0.041840022 752:0.046277131 754:0.04942531 784:0.040153112 859:0.086083298 871:0.045081238 906:0.04942531 961:0.017203558 1010:0.053862419 1094:0.09885062 1126:0.043835214 1223:0.034254735 1363:0.074947609 1544:0.023184526 1571:0.038691843 1574:0.053862419 1827:0.063743922 1967:0.12552007 2159:0.045081238 2205:0.053862419 2247:0.043835214 2260:0.033378807 2265:0.046277131 2322:0.026669447 2491:0.15620357 2500:0.038691843 2517:0.037402913 2564:0.037402913 2713:0.015112791 2775:0.031106556 2781:0.043835214 2792:0.025793519 2809:0.023868702 2829:0.04942531 2930:0.040153112 2989:0.039580842 3039:0.04942531 3051:0.023184526 3184:0.038629104 3240:0.081417073 3243:0.053862419 3263:0.013223846 3283:0.046453847 3315:0.046277131 3370:0.027824655 3379:0.066119228 3386:0.014955332 3520:0.031532628 3587:0.083680045 3636:0.032922715 3721:0.087677863 3765:0.037402913 3774:0.041840022 3783:0.035206922 3805:0.053862419 3846:0.038691843 3848:0.21769463 3861:0.014496107 3887:0.027135188 3888:0.063625635 3892:0.038691843 3927:0.028130715 3987:0.053862419 4111:0.029817626 4134:0.025152253 4137:0.032567824 4230:0.028664639 4260:0.053862419 4310:0.043835214 4331:0.023868702 4414:0.076983794 4488:0.020287927 4549:0.053862419 4566:0.059371263 4623:0.03888042 4645:0.04942531 4655:0.05132253 4658:0.037717034 4704:0.030443125 4707:0.032566829 4726:0.027135188 5084:0.24712655 5121:0.04942531 5286:0.09885062 5294:0.041840022 5381:0.041840022 5432:0.04942531 5476:0.04942531 5559:0.044464676 5743:0.021640667 5823:0.10772484 5843:0.09885062 6059:0.037402913 6261:0.027824655 6292:0.032567824 6299:0.035206922 6350:0.038691843 6361:0.046277131 6364:0.043835214 6380:0.053862419 6456:0.033378807 6644:0.036249926 6739:0.021640667 6742:0.046277131 6750:0.030443125 6857:0.040153112 6861:0.10686496 6863:0.019314552 6865:0.28353033 6871:0.020287927 6877:0.022540619 6878:0.016283415 6886:0.17603461 6887:0.023184526 6897:0.056221516 6905:0.040153112 6917:0.022540619 6956:0.059371263 6978:0.12451059 6987:0.040153112 7007:0.062213112 7078:0.046277131 7149:0.031812817 7237:0.053862419 7273:0.014800105 7277:0.043835214 7293:0.04942531 7441:0.034254735 7459:0.022232338 7484:0.041840022 7496:0.02135641 7499:0.13169086 7521:0.02422753 7531:0.091329375 7543:0.060451165 7581:0.046369052 7593:0.04942531 7602:0.046277131 7619:0.04942531 7643:0.035206922 7652:0.031106556 7653:0.038691843 7661:0.051587038 7673:0.10013642 7701:0.021640667 7720:0.036249926 7739:0.012576127 
0 0.93374734455106734 0.074691755437318597 0.099942373913216337 0.020424501139891686 42:0.025246659 101:0.0097986827 124:0.034096169 150:0.078141838 151:0.018757266 180:0.22453776 234:0.028466245 241:0.012804597 264:0.02366606 271:0.026653068 283:0.041947737 336:0.033018493 347:0.13207397 349:0.010486934 382:0.024097539 443:0.13926611 455:0.031021775 464:0.02027724 469:0.16876795 471:0.031021775 489:0.02154201 634:0.02027724 677:0.028466245 710:0.014167389 718:0.031021775 841:0.028466245 854:0.02027724 859:0.041316016 891:0.029235548 894:0.048195078 921:0.02154201 925:0.043084019 961:0.089174681 1172:0.020877953 1221:0.013353005 1277:0.028466245 1363:0.028777119 1405:0.031021775 1448:0.031021775 1544:0.040059014 1564:0.022284362 1702:0.017173303 1749:0.024097539 1796:0.031100637 1827:0.18356487 1852:0.030400256 1892:0.031021775 1903:0.028466245 1915:0.031021775 1929:0.022284362 1971:0.022284362 1984:0.031021775 2159:0.01298215 2163:0.014388559 2171:0.020877953 2241:0.02027724 2255:0.028466245 2256:0.02154201 2260:0.038448694 2322:0.015360127 2324:0.019728833 2326:0.028466245 2375:0.028466245 2383:0.031021775 2491:0.057250213 2517:0.02154201 2554:0.02154201 2564:0.02154201 2571:0.0089842986 2584:0.027907435 2593:0.020877953 2736:0.031817068 2741:0.065824251 2746:0.02154201 2748:0.026653068 2783:0.039457666 2793:0.048605209 2804:0.034096169 2809:0.013747053 2856:0.031021775 2917:0.055814869 2957:0.025246659 2989:0.022796376 3003:0.023125972 3054:0.018322424 3089:0.029711281 3127:0.023125972 3167:0.019728833 3184:0.011124114 3240:0.037513385 3263:0.076162038 3283:0.04013227 3335:0.026653068 3352:0.02027724 3370:0.024038194 3379:0.045697223 3386:0.017226888 3388:0.31316929 3397:0.026653068 3520:0.1089663 3544:0.01298215 3587:0.024097539 3636:0.028442495 3723:0.043084019 3771:0.017915656 3806:0.01214054 3861:0.016697911 3887:0.015628368 3926:0.48195078 3927:0.016201736 3928:0.024097539 3930:0.031817068 3959:0.1557858 3977:0.026653068 4016:0.018322424 4034:0.023125972 4040:0.031100637 4041:0.023125972 4111:0.017173303 4134:0.11589045 4154:0.022284362 4230:0.033018493 4231:0.031021775 4243:0.045308512 4377:0.017173303 4414:0.081287082 4417:0.019728833 4488:0.093477793 4489:0.046885103 4492:0.017533556 4514:0.048605209 4516:0.028466245 4534:0.12653837 4547:0.031021775 4566:0.022796376 4572:0.016509247 4623:0.052250267 4624:0.01198491 4655:0.014779469 4658:0.032584389 4662:0.051218389 4669:0.031021775 4680:0.011259661 4695:0.035831312 4704:0.035067113 4707:0.018756693 4726:0.015628368 4803:0.041755906 4822:0.018322424 4874:0.015908534 4883:0.025246659 4980:0.028466245 4988:0.026653068 5155:0.031021775 5295:0.031021775 5354:0.028466245 5389:0.10571986 5390:0.053306137 5551:0.019728833 5596:0.031021775 5689:0.028466245 5743:0.099710617 5857:0.010609321 5961:0.053306137 5972:0.015628368 5979:0.026653068 6002:0.011539828 6030:0.017173303 6031:0.028466245 6040:0.015628368 6095:0.017533556 6102:0.028466245 6123:0.026653068 6183:0.02027724 6214:0.031021775 6218:0.028466245 6261:0.032050926 6285:0.037391482 6292:0.018757266 6300:0.026653068 6309:0.050493318 6310:0.031021775 6448:0.023125972 6454:0.022284362 6456:0.019224347 6600:0.025246659 6624:0.024097539 6634:0.17079747 6664:0.048195078 6692:0.10098664 6750:0.017533556 6842:0.025246659 6857:0.023125972 6861:0.12309662 6863:0.033372342 6865:0.12779827 6871:0.011684724 6875:0.017533556 6897:0.008095121 6902:0.020877953 6956:0.034194564 6978:0.12190907 7001:0.024097539 7005:0.031021775 7006:0.030205675 7041:0.019728833 7103:0.024097539 7149:0.036644847 7151:0.037514531 7166:0.017533556 7190:0.025246659 7191:0.031021775 7236:0.018757266 7237:0.031021775 7273:0.017048085 7293:0.028466245 7341:0.026653068 7441:0.019728833 7444:0.024097539 7459:0.17926436 7478:0.019170022 7499:0.028442495 7521:0.041861152 7531:0.017533556 7543:0.008704132 7546:0.024097539 7551:0.037110003 7557:0.019728833 7599:0.031021775 7620:0.023125972 7626:0.016025463 7655:0.017173303 7673:0.019224347 7718:0.049855309 7739:0.25351037 7746:0.017408264 7747:0.20797897 7752:0.028466245 7757:0.024097539 7783:0.026653068 
0 0 0 0.048321335696149353 0 84:0.034446809 101:0.016645922 110:0.048358224 124:0.072402865 180:0.14765531 207:0.078572422 264:0.040203709 267:0.052699536 276:0.026549342 349:0.035630236 361:0.033515179 443:0.014786508 452:0.048358224 469:0.02205397 571:0.026093657 572:0.034446809 629:0.096716447 656:0.030434969 663:0.096716447 724:0.052699536 726:0.036595389 769:0.17156982 859:0.014037462 904:0.12915955 1041:0.033515179 1135:0.040936701 1181:0.090556027 1200:0.039286211 1223:0.033515179 1225:0.078572422 1261:0.14507467 1349:0.048358224 1400:0.045278014 1480:0.11356947 1558:0.034446809 1704:0.031864689 1716:0.035467295 1809:0.11356947 1827:0.093551547 1852:0.051643705 1910:0.037856491 1913:0.052699536 1978:0.040936701 2031:0.19343289 2065:0.078572422 2095:0.045278014 2139:0.039286211 2233:0.052699536 2322:0.026093657 2367:0.048358224 2438:0.052699536 2453:0.045278014 2491:0.069468708 2547:0.039286211 2571:0.030524905 2584:0.16593122 2588:0.062251965 2593:0.035467295 2713:0.059146032 2715:0.032658162 2741:0.1118217 2746:0.036595389 2804:0.028961146 2807:0.040936701 2916:0.052699536 2958:0.024443167 2991:0.042888817 3051:0.022683975 3068:0.030434969 3121:0.10539907 3179:0.033515179 3184:0.018897553 3263:0.025876689 3283:0.045450914 3370:0.068059812 3379:0.064691722 3386:0.043897343 3520:0.015425921 3568:0.040936701 3569:0.052699536 3603:0.052699536 3636:0.016105959 3668:0.10334043 3755:0.040936701 3771:0.030434969 3774:0.040936701 3817:0.036595389 3861:0.070915687 3901:0.090556027 3906:0.052699536 3915:0.052699536 3959:0.02205397 3999:0.037856491 4014:0.030434969 4016:0.062251965 4040:0.017611169 4043:0.033515179 4044:0.040936701 4090:0.052699536 4128:0.07093459 4134:0.036913829 4176:0.052699536 4223:0.042888817 4272:0.048358224 4309:0.042888817 4331:0.02335338 4397:0.032658162 4410:0.10539907 4411:0.10539907 4414:0.087875344 4469:0.045278014 4510:0.023013447 4512:0.046026894 4534:0.042992467 4623:0.038040996 4655:0.025107241 4656:0.034446809 4658:0.018451364 4707:0.031863715 4743:0.052699536 4748:0.045278014 4811:0.042888817 4844:0.052699536 5012:0.032658162 5063:0.048358224 5069:0.052699536 5250:0.02062425 5254:0.048358224 5273:0.10978617 5288:0.033515179 5352:0.040936701 5386:0.024443167 5390:0.045278014 5411:0.039286211 5499:0.052699536 5506:0.037856491 5559:0.021752345 5594:0.14022886 5613:0.052699536 5689:0.048358224 5706:0.027025287 5845:0.042888817 5886:0.10539907 5894:0.15809861 5952:0.045278014 6002:0.058811295 6052:0.040936701 6093:0.052699536 6095:0.029785862 6108:0.045278014 6149:0.048358224 6261:0.068059812 6299:0.034446809 6332:0.052699536 6397:0.039286211 6405:0.052699536 6431:0.045278014 6456:0.032658162 6461:0.052699536 6530:0.027523377 6553:0.045278014 6613:0.048358224 6724:0.048358224 6739:0.021173447 6744:0.034446809 6783:0.1228101 6854:0.024443167 6861:0.01306972 6863:0.075590213 6865:0.48245033 6887:0.022683975 6897:0.041255775 6911:0.029173867 6917:0.02205397 6929:0.036595389 6946:0.036595389 6978:0.1705514 7053:0.042888817 7157:0.039286211 7167:0.040936701 7185:0.023013447 7273:0.10136401 7478:0.016282938 7499:0.080529795 7533:0.039286211 7543:0.17743809 7551:0.047281626 7568:0.020101854 7626:0.040835887 7629:0.029785862 7673:0.032658162 7701:0.021173447 7717:0.036595389 7718:0.021173447 7739:0.086132267 7746:0.11829206 
0 0.026579816574523671 0 0 0 20:0.037839076 42:0.044498723 44:0.040760887 92:0.046977602 101:0.017270755 124:0.015024126 150:0.027545918 180:0.14043133 187:0.044498723 201:0.054677704 264:0.062569237 283:0.018483839 295:0.044498723 336:0.029098519 349:0.11090303 361:0.034773229 443:0.076707725 460:0.046977602 469:0.045763608 484:0.036798621 492:0.030268958 524:0.054146255 548:0.028039728 581:0.12107583 616:0.03229435 656:0.063154797 717:0.031577398 721:0.054677704 751:0.042473331 821:0.054677704 854:0.03573983 859:0.043693146 860:0.050173433 882:0.054677704 895:0.046977602 900:0.063154797 904:0.019143968 961:0.10478375 987:0.054677704 993:0.054677704 1160:0.093955204 1221:0.047070914 1359:0.050173433 1363:0.025360683 1373:0.046977602 1404:0.046977602 1487:0.050173433 1749:0.042473331 1796:0.018272235 1809:0.0392775 1827:0.032354389 1836:0.046977602 1852:0.017860747 1879:0.050173433 1891:0.050173433 2162:0.03229435 2213:0.050173433 2241:0.03573983 2292:0.03573983 2326:0.050173433 2335:0.046977602 2394:0.046977602 2405:0.029668331 2411:0.046977602 2424:0.050173433 2491:0.057661069 2519:0.03796906 2546:0.054677704 2555:0.054677704 2571:0.015835355 2572:0.10431969 2635:0.054677704 2656:0.12228266 2713:0.015341545 2736:0.056079456 2739:0.036798621 2741:0.023203824 2748:0.046977602 2771:0.018483839 2782:0.036798621 2792:0.026183941 2793:0.057113028 2804:0.060096505 2809:0.024229989 2814:0.040760887 2848:0.042473331 2907:0.044498723 2917:0.024594248 2939:0.029668331 2969:0.033060785 2989:0.020089977 3000:0.027073127 3001:0.054677704 3036:0.03796906 3038:0.03573983 3048:0.23565547 3059:0.03573983 3085:0.054677704 3122:0.050173433 3133:0.046977602 3163:0.054677704 3179:0.034773229 3184:0.019606906 3215:0.050173433 3240:0.016529887 3263:0.05369603 3264:0.030903925 3283:0.070735489 3331:0.07147966 3370:0.014122911 3379:0.05369603 3431:0.044498723 3451:0.054677704 3459:0.054677704 3505:0.054677704 3520:0.03200992 3544:0.022881804 3563:0.044498723 3623:0.033884043 3636:0.033421048 3673:0.054677704 3727:0.03796906 3861:0.044146578 3878:0.046977602 3881:0.044498723 3887:0.055091836 3931:0.044498723 3932:0.042473331 3934:0.10034687 3936:0.046977602 3959:0.022881804 4011:0.23488801 4040:0.036544469 4059:0.042248219 4088:0.18791041 4089:0.054677704 4101:0.050173433 4111:0.030268958 4134:0.08936539 4182:0.046977602 4200:0.034773229 4248:0.036798621 4323:0.054677704 4361:0.036798621 4367:0.046977602 4414:0.05209937 4417:0.034773229 4459:0.021124109 4488:0.041190029 4492:0.030903925 4534:0.014868755 4566:0.020089977 4578:0.048531583 4593:0.0392775 4623:0.02631262 4634:0.090806875 4641:0.046977602 4644:0.029098519 4655:0.065124212 4658:0.038287936 4673:0.050173433 4680:0.019845816 4707:0.016529887 4751:0.046977602 4755:0.03796906 4771:0.050173433 4813:0.036798621 4968:0.054677704 5003:0.044498723 5007:0.044498723 5014:0.050173433 5126:0.054677704 5288:0.034773229 5342:0.027073127 5386:0.050721366 5389:0.02661964 5472:0.033060785 5483:0.054677704 5523:0.054677704 5559:0.045137713 5662:0.054677704 5706:0.22431782 5716:0.025764688 5726:0.050173433 5742:0.042473331 5743:0.043936458 5794:0.036798621 5865:0.034773229 5913:0.054677704 5972:0.35809693 5988:0.078555 6041:0.046977602 6064:0.054677704 6071:0.044498723 6083:0.054677704 6202:0.033884043 6261:0.042368733 6285:0.021968229 6291:0.073597242 6299:0.03573983 6457:0.10721949 6477:0.040760887 6501:0.054677704 6525:0.044498723 6539:0.0392775 6560:0.031577398 6612:0.03796906 6624:0.042473331 6750:0.030903925 6796:0.050173433 6816:0.046407647 6861:0.027120629 6865:0.25027997 6871:0.041190029 6875:0.030903925 6878:0.016529887 6885:0.025360683 6887:0.023535457 6897:0.042804382 6904:0.03573983 6911:0.030268958 6913:0.054677704 6917:0.022881804 6951:0.034773229 6956:0.040179955 6978:0.16431381 6980:0.054677704 6996:0.028556514 7004:0.040760887 7007:0.063154797 7147:0.040760887 7150:0.031577398 7167:0.042473331 7185:0.023877296 7273:0.015024126 7421:0.054677704 7443:0.044498723 7450:0.046977602 7456:0.046977602 7459:0.045137713 7478:0.050682439 7484:0.042473331 7496:0.02167967 7499:0.016710524 7521:0.024594248 7531:0.030903925 7543:0.03068309 7551:0.016352141 7564:0.03573983 7568:0.041712824 7581:0.023535457 7597:0.020856412 7626:0.014122911 7643:0.03573983 7645:0.028556514 7675:0.03573983 7691:0.03573983 7701:0.021968229 7739:0.10213187 7746:0.03068309 7747:0.10473576 7748:0.036798621 7749:0.036798621 
0.066366313474124028 0.25722697554124818 0 0.070428842366190347 0.0073707706394466593 110:0.025910908 126:0.021934369 128:0.028237034 144:0.042100033 343:0.028237034 472:0.056474069 498:0.084711103 1502:0.14118517 1531:0.077732724 1533:0.022980335 1558:0.18457008 1705:0.075136283 1820:0.056474069 1834:0.019608242 1954:0.056474069 2003:0.22589628 2065:0.23155018 2451:0.015631703 2671:0.028237034 2780:0.028237034 3022:0.14118517 3055:0.14118517 3254:0.76239993 3283:0.024353137 3370:0.058347603 3428:0.042100033 3482:0.056474069 3533:0.028237034 3859:0.028237034 3935:0.028237034 4001:0.028237034 4002:0.056474069 4134:0.0065929553 4151:0.028237034 4200:0.089789146 4291:0.28237034 4303:0.084711103 4419:0.028237034 4484:0.028237034 4507:0.14118517 4541:0.028237034 4583:0.028237034 4813:0.019003796 5060:0.020283956 6783:0.043868737 6948:0.14118517 6985:0.028237034 7023:0.028237034 7205:0.056474069 7303:0.051821816 7414:0.056474069 7434:0.028237034 7462:0.02704418 7486:0.028237034 7510:0.051821816 7762:0.056474069 7774:0.028237034 7782:0.028237034 7787:0.084711103 
0 0.060300736362270263 0 0 0.011716382267067902 54:0.095895167 124:0.0263497 176:0.083753236 228:0.095895167 276:0.048310741 283:0.032417434 304:0.095895167 349:0.032417434 413:0.071487494 420:0.15608602 451:0.054200101 460:0.16478106 530:0.095895167 571:0.047481549 859:0.10217356 961:0.03062874 1012:0.056638664 1048:0.14898165 1133:0.078043008 1163:0.074490823 1221:0.041277091 1476:0.056638664 1540:0.087995461 1571:0.068885893 1704:0.057982857 1834:0.066591117 1836:0.08239053 2008:0.08239053 2116:0.095895167 2260:0.059426708 2273:0.095895167 2324:0.12197237 2399:0.087995461 2451:0.05308648 2491:0.050563734 2519:0.13318223 2571:0.027772454 2584:0.12940208 2589:0.27554357 2656:0.071487494 2739:0.06453837 2804:0.0263497 3007:0.056638664 3038:0.062681435 3101:0.17394857 3110:0.078043008 3130:0.095895167 3138:0.066591117 3150:0.19179033 3184:0.034387097 3263:0.14126022 3283:0.062028862 3370:0.04953825 3386:0.02662606 3636:0.029307348 3769:0.08239053 3861:0.077425406 3882:0.056638664 4016:0.056638664 4040:0.032046316 4134:0.11195095 4268:0.095895167 4331:0.08499036 4344:0.08239053 4409:0.095895167 4414:0.091373218 4417:0.30493093 4453:0.08239053 4488:0.072240134 4534:0.13038603 4655:0.068529914 4672:0.068885893 4673:0.087995461 4707:0.028990543 4874:0.049176798 4930:0.095895167 4941:0.095895167 5012:0.11885342 5352:0.074490823 5628:0.074490823 5754:0.078043008 5794:0.06453837 5914:0.095895167 5972:0.048310741 6035:0.078043008 6040:0.048310741 6056:0.066591117 6122:0.08239053 6389:0.08239053 6752:0.071487494 6861:0.02378243 6863:0.034387097 6865:0.21947373 6871:0.1083602 6897:0.050047619 6900:0.2876855 6978:0.11083762 7034:0.078043008 7152:0.06453837 7386:0.087995461 7494:0.095895167 7543:0.053812794 7626:0.04953825 7629:0.054200101 7739:0.022390189 
0 0 0.040956788224892578 0 0 20:0.079852873 101:0.16401133 124:0.22194087 180:0.067353683 207:0.043009426 241:0.023813848 264:0.044013877 283:0.039006969 291:0.057693953 296:0.057693953 443:0.032375696 455:0.11538791 469:0.024144059 492:0.095816159 524:0.057133187 526:0.036691465 533:0.16659669 591:0.043009426 859:0.13831032 895:0.049569081 904:0.040400057 946:0.04144421 961:0.036854685 989:0.057693953 1046:0.11538791 1059:0.077657171 1163:0.089632672 1223:0.07338293 1331:0.044816336 1358:0.057693953 1363:0.026759683 1372:0.046953457 1796:0.019280207 1827:0.068278382 1852:0.037692039 1872:0.037711387 1878:0.052941208 2046:0.023813848 2095:0.049569081 2266:0.038828585 2281:0.080127182 2323:0.04144421 2355:0.046953457 2385:0.049569081 2446:0.057693953 2451:0.063877439 2457:0.043009426 2491:0.030420946 2500:0.04144421 2502:0.046953457 2571:0.016708899 2622:0.025566616 2713:0.032375696 2775:0.033319338 2792:0.027628356 2793:0.03013181 2804:0.12682336 2857:0.14086037 2927:0.08288842 2977:0.03407584 2986:0.057693953 2989:0.063594671 2999:0.24144059 3006:0.033319338 3048:0.055256711 3079:0.050388934 3086:0.025566616 3121:0.11538791 3233:0.033319338 3240:0.017441745 3263:0.042493594 3283:0.06219796 3303:0.11538791 3370:0.059607956 3374:0.093906914 3379:0.21246797 3386:0.032038375 3453:0.057693953 3520:0.01688786 3577:0.040063591 3630:0.043009426 3636:0.035264691 3681:0.043009426 3682:0.044816336 3693:0.049569081 3713:0.11538791 3765:0.040063591 3806:0.067736528 3848:0.021198224 3861:0.031054591 3930:0.059173031 3932:0.044816336 3945:0.035753227 3949:0.035753227 3959:0.024144059 4016:0.03407584 4059:0.13373642 4070:0.052941208 4100:0.052941208 4134:0.053882946 4139:0.052941208 4212:0.033319338 4243:0.02808809 4310:0.046953457 4315:0.081557923 4414:0.013743347 4426:0.16577684 4488:0.021731121 4489:0.029065465 4495:0.13444901 4514:0.090395429 4534:0.015688977 4536:0.037711387 4566:0.021198224 4578:0.017069595 4623:0.055528267 4624:0.089157611 4634:0.063877439 4662:0.071441544 4707:0.034883489 4726:0.05813093 4775:0.052941208 4874:0.059173031 5007:0.046953457 5158:0.044816336 5342:0.057133187 5389:0.056176179 5513:0.036691465 5559:0.14288309 5743:0.023180088 5744:0.043009426 5857:0.059193292 5884:0.075422774 5920:0.052941208 6012:0.052941208 6261:0.029803978 6275:0.052941208 6282:0.057693953 6291:0.077657171 6294:0.057693953 6350:0.04144421 6448:0.12902828 6476:0.02808809 6560:0.033319338 6586:0.052941208 6685:0.052941208 6739:0.023180088 6785:0.052941208 6804:0.044816336 6816:0.048967685 6861:0.071541789 6863:0.062065511 6865:0.17165619 6867:0.020441722 6872:0.051133232 6878:0.017441745 6888:0.040063591 6897:0.045165649 6917:0.072432177 6956:0.042396448 6978:0.17337804 7004:0.043009426 7006:0.02808809 7007:0.033319338 7148:0.057693953 7150:0.033319338 7185:0.025194467 7190:0.046953457 7201:0.071506454 7341:0.049569081 7462:0.027628356 7478:0.017826097 7496:0.022875611 7499:0.017632346 7510:0.052941208 7543:0.064751393 7551:0.086270966 7558:0.10588242 7560:0.057693953 7568:0.044013877 7597:0.022006938 7626:0.089411935 7629:0.065217428 7673:0.035753227 7687:0.035753227 7703:0.057693953 7718:0.023180088 7734:0.02483377 7739:0.28288547 7742:0.036691465 7746:0.080939241 
0 0.16581188369900143 0.018125953105147759 0.040600998338767742 0 5:0.018867382 20:0.0071145649 48:0.017665611 64:0.020561183 71:0.020561183 89:0.020561183 120:0.020561183 121:0.020561183 124:0.0056497216 180:0.052808255 197:0.010544151 202:0.041122365 241:0.016973733 264:0.015685827 269:0.020561183 276:0.010358457 327:0.01597181 330:0.017665611 333:0.020561183 336:0.010942302 347:0.010942302 349:0.013901447 469:0.0086045483 510:0.020561183 524:0.010180667 533:0.011874468 600:0.016733445 612:0.020561183 728:0.020561183 732:0.020561183 749:0.018867382 761:0.018867382 785:0.030655714 786:0.020561183 789:0.017665611 855:0.020561183 859:0.016430514 904:0.014397921 912:0.0075547008 920:0.018867382 957:0.013076239 961:0.019701612 1009:0.015327857 1010:0.020561183 1022:0.020561183 1041:0.013076239 1093:0.061683548 1135:0.01597181 1181:0.035331222 1196:0.020561183 1208:0.020561183 1211:0.020561183 1276:0.020561183 1287:0.020561183 1304:0.020561183 1348:0.020561183 1350:0.020561183 1363:0.0095367142 1401:0.016733445 1408:0.012432286 1428:0.020561183 1476:0.012144073 1485:0.020561183 1500:0.010942302 1533:0.016733445 1534:0.020561183 1546:0.012144073 1558:0.013439722 1574:0.020561183 1588:0.020561183 1616:0.020561183 1640:0.020561183 1663:0.016733445 1745:0.018867382 1746:0.018867382 1763:0.020561183 1814:0.012741866 1827:0.0243333 1852:0.0067164136 1872:0.013439722 1978:0.01597181 2036:0.020561183 2048:0.020561183 2051:0.020561183 2072:0.013439722 2090:0.020561183 2095:0.017665611 2110:0.020561183 2111:0.016733445 2159:0.017209097 2187:0.018867382 2204:0.020561183 2218:0.020561183 2231:0.010738485 2250:0.016733445 2256:0.01427801 2262:0.020561183 2275:0.035331222 2277:0.020561183 2297:0.017665611 2342:0.020561183 2387:0.011382438 2393:0.018867382 2405:0.011156576 2435:0.015327857 2491:0.032524585 2499:0.020561183 2535:0.020561183 2547:0.015327857 2571:0.011909557 2598:0.020561183 2606:0.015327857 2618:0.88413085 2621:0.020561183 2642:0.018867382 2713:0.023076339 2715:0.025483733 2745:0.01597181 2751:0.018867382 2786:0.020561183 2804:0.011299443 2807:0.01597181 2814:0.015327857 2829:0.018867382 2837:0.018867382 2839:0.01427801 2843:0.018867382 2848:0.01597181 2885:0.012432286 2907:0.016733445 2911:0.03346689 2939:0.022313152 2944:0.012144073 2945:0.020561183 2969:0.012432286 2976:0.017665611 2978:0.015327857 2989:0.0075547008 2990:0.017665611 3002:0.01597181 3018:0.016733445 3079:0.0089788966 3108:0.01597181 3133:0.017665611 3138:0.042834029 3184:0.022119135 3240:0.0062159529 3242:0.020561183 3257:0.020561183 3263:0.015144023 3283:0.031032872 3288:0.020561183 3289:0.020561183 3291:0.020561183 3295:0.018867382 3304:0.020561183 3358:0.020561183 3370:0.015932477 3379:0.025240038 3386:0.028544884 3410:0.017665611 3475:0.020561183 3520:0.012037115 3682:0.01597181 3771:0.011874468 3772:0.020561183 3810:0.018867382 3817:0.028556019 3848:0.0075547008 3861:0.016601023 3868:0.020561183 3891:0.012432286 3928:0.01597181 4014:0.035623404 4040:0.0068711508 4043:0.013076239 4069:0.018867382 4097:0.018867382 4119:0.020561183 4121:0.14392828 4128:0.013837874 4134:0.014402251 4223:0.016733445 4228:0.018867382 4239:0.020561183 4247:0.01597181 4268:0.020561183 4331:0.027334573 4357:0.056602145 4383:0.020561183 4400:0.020561183 4414:0.024489522 4426:0.01477004 4444:0.020561183 4461:0.018867382 4463:0.020561183 4473:0.020561183 4488:0.0077446165 4489:0.010358457 4492:0.034863639 4514:0.010738485 4534:0.02236518 4566:0.0075547008 4578:0.030416625 4623:0.0049473419 4644:0.010942302 4655:0.0048979043 4662:0.0084868666 4680:0.0074628855 4682:0.020561183 4683:0.017665611 4704:0.011621213 4705:0.016733445 4707:0.024863812 4752:0.017665611 4822:0.024288146 4836:0.018867382 4840:0.013439722 4841:0.020561183 4877:0.018867382 4882:0.020561183 4884:0.018867382 4895:0.061683548 4951:0.020561183 4985:0.017665611 4993:0.016733445 5066:0.020561183 5124:0.020561183 5137:0.020561183 5241:0.017665611 5285:0.016733445 5342:0.010180667 5355:0.01597181 5356:0.020561183 5425:0.020561183 5453:0.020561183 5458:0.018867382 5462:0.020561183 5486:0.016733445 5499:0.020561183 5513:0.013076239 5570:0.017665611 5575:0.01427801 5656:0.083667226 5665:0.011382438 5743:0.0082610047 5830:0.018867382 5843:0.018867382 5854:0.018867382 5859:0.020561183 5864:0.01477004 5880:0.020561183 5896:0.020561183 5926:0.016733445 5940:0.01597181 5950:0.018867382 6040:0.010358457 6095:0.011621213 6155:0.020561183 6168:0.020561183 6177:0.020561183 6200:0.020561183 6261:0.010621651 6303:0.016733445 6331:0.015327857 6355:0.018867382 6438:0.020561183 6442:0.011874468 6443:0.020561183 6454:0.01477004 6472:0.020561183 6530:0.064430909 6544:0.012144073 6546:0.018867382 6613:0.056602145 6739:0.049566028 6762:0.016733445 6826:0.020561183 6854:0.019073428 6861:0.040794121 6863:0.01474609 6865:0.16470317 6867:0.014570192 6871:0.015489233 6886:0.013439722 6897:0.026827166 6911:0.011382438 6918:0.11320429 6950:0.060720365 6956:0.0075547008 6978:0.085554143 7026:0.012144073 7074:0.020561183 7091:0.020561183 7097:0.020561183 7105:0.013837874 7142:0.029540079 7191:0.020561183 7236:0.012432286 7249:0.018867382 7273:0.011299443 7345:0.020561183 7441:0.013076239 7482:0.025483733 7484:0.01597181 7496:0.008152494 7499:0.069122681 7521:0.0092485015 7531:0.034863639 7533:0.030655714 7548:0.011382438 7551:0.018447338 7620:0.015327857 7626:0.042486604 7629:0.011621213 7645:0.02147697 7664:0.020561183 7687:0.012741866 7700:0.020561183 7705:0.020561183 7708:0.0092485015 7717:0.01427801 7718:0.016522009 7719:0.01477004 7739:0.014402251 7746:0.028845424 
0 0 0.13387268527912818 0 0.038391186308487389 20:0.082470837 61:0.020571392 85:0.022752976 124:0.050937149 150:0.013341498 151:0.048037653 180:0.098932427 218:0.020571392 241:0.3935133 254:0.095295173 443:0.066874257 489:0.018389809 519:0.026482418 548:0.013580669 570:0.022752976 616:0.015641338 620:0.026482418 656:0.015294092 715:0.020571392 784:0.019741993 853:0.020571392 859:0.042324387 904:0.12053764 1001:0.024300834 1012:0.031282677 1213:0.026482418 1327:0.016012551 1363:0.024566218 1364:0.017822922 1373:0.022752976 1716:0.017822922 1784:0.026482418 1796:0.097349049 1809:0.019023534 1846:0.018389809 1888:0.021552364 1931:0.048601668 2043:0.053468766 2162:0.015641338 2163:0.012283109 2231:0.013830967 2234:0.025785736 2299:0.024300834 2321:0.019741993 2375:0.17010584 2385:0.022752976 2387:0.014660367 2396:0.026482418 2405:0.014369461 2411:0.045505952 2435:0.019741993 2471:0.026482418 2491:0.0069818427 2500:0.13316474 2571:0.0076696434 2584:0.011911897 2637:0.026482418 2713:0.007430473 2716:0.016411285 2736:0.013580669 2742:0.022752976 2744:0.024300834 2771:0.026857204 2775:0.015294092 2783:0.016841951 2793:0.027661935 2822:0.026482418 2927:0.019023534 2958:0.012283109 3012:0.016411285 3054:0.015641338 3083:0.045505952 3184:0.0094963436 3240:0.032024123 3263:0.013003479 3283:0.039969757 3287:0.026482418 3331:0.017310111 3359:0.026482418 3370:0.18468658 3379:0.24706609 3386:0.022059166 3388:0.12476045 3406:0.068258928 3411:0.022752976 3453:0.026482418 3467:0.026482418 3520:0.031007157 3598:0.026482418 3636:0.0080935197 3693:0.022752976 3721:0.014369461 3765:0.018389809 3806:0.010364038 3843:0.019741993 3861:0.007127269 3870:0.022752976 3887:0.026682997 3933:0.016411285 3995:0.024300834 4014:0.015294092 4041:0.019741993 4059:0.010231181 4111:0.029320734 4134:0.0061832767 4137:0.016012551 4230:0.01409348 4243:0.025785736 4331:0.011735473 4414:0.069392499 4431:0.013341498 4488:0.029924763 4495:0.020571392 4534:0.072014833 4536:0.017310111 4564:0.020571392 4566:0.019460626 4572:0.16912176 4578:0.0078352087 4623:0.044604586 4624:0.010231181 4655:0.025233636 4656:0.017310111 4658:0.064904881 4662:0.010930925 4680:0.038448227 4707:0.064048247 4718:0.022752976 4746:0.022752976 4874:0.013580669 4981:0.024300834 5000:0.013580669 5051:0.026482418 5114:0.026482418 5194:0.022752976 5381:0.020571392 5432:0.024300834 5466:0.026482418 5472:0.016012551 5559:0.010930925 5598:0.019023534 5716:0.012478783 5741:0.026482418 5828:0.026482418 5857:0.0090568793 5858:0.022752976 6059:0.018389809 6095:0.014967905 6130:0.026482418 6149:0.024300834 6172:0.026482418 6190:0.091011904 6196:0.026482418 6261:0.0068402438 6266:0.022752976 6290:0.068258928 6456:0.016411285 6516:0.022164994 6530:0.041492902 6547:0.024300834 6739:0.010640019 6855:0.021552364 6861:0.11821964 6862:0.020571392 6863:0.0094963436 6865:0.16364669 6866:0.015641338 6871:0.0099749209 6872:0.023470945 6875:0.23948648 6877:0.011082497 6885:0.098264873 6887:0.011399085 6897:0.048374042 6956:0.009730313 6978:0.048974281 7006:0.012892868 7007:0.015294092 7142:0.019023534 7149:0.046924015 7151:0.016012551 7273:0.014553471 7293:0.024300834 7312:0.024300834 7335:0.016411285 7449:0.017310111 7454:0.026482418 7478:0.0081824548 7487:0.013580669 7496:0.094502336 7499:0.024280559 7505:0.022752976 7509:0.017822922 7531:0.014967905 7543:0.037152365 7548:0.014660367 7568:0.040406102 7581:0.011399085 7597:0.020203051 7626:0.05472195 7661:0.012681843 7673:0.082056425 7718:0.010640019 7739:0.58741128 7746:0.037152365 7747:0.012681843 
0 0.13683894585212772 0.22712702415850175 0.33154651377817784 0.098879510474755183 101:0.012102475 124:0.021056302 138:0.031182464 151:0.023167333 180:0.089461093 241:0.12652094 254:0.1551097 264:0.029230247 283:0.012952544 336:0.040781554 347:0.16312621 443:0.021501164 469:0.016034416 474:0.020010967 526:0.024367328 548:0.019648829 609:0.035159015 717:0.02212785 769:0.020790072 859:0.010205986 871:0.016034416 912:0.23932675 961:0.012237862 1080:0.038315381 1221:0.049477389 1363:0.01777149 1397:0.026606805 1564:0.027523694 1796:0.025608524 1827:0.12469779 1852:0.11264321 1899:0.029763172 1967:0.029763172 2043:0.23207958 2159:0.016034416 2162:0.045260508 2222:0.038315381 2224:0.035159015 2322:0.018971484 2324:0.12183664 2339:0.032919538 2395:0.031182464 2405:0.020790072 2461:0.038315381 2491:0.03030448 2551:0.032919538 2571:0.011096619 2606:0.028563177 2622:0.016979156 2713:0.010750582 2736:0.19648829 2792:0.018348387 2804:0.021056302 2854:0.038315381 2939:0.020790072 2989:0.014078044 2991:0.24945971 2999:0.016034416 3009:0.035159015 3090:0.032919538 3115:0.035159015 3120:0.02212785 3184:0.013739532 3240:0.069499876 3263:0.037627474 3283:0.0082613114 3370:0.0098966247 3379:0.018813737 3520:0.1121547 3544:0.016034416 3594:0.028563177 3623:0.023744231 3636:0.12880883 3681:0.028563177 3725:0.038315381 3732:0.029763172 3765:0.026606805 3783:0.025044673 3806:0.044984799 3848:0.014078044 3861:0.092807095 3881:0.031182464 3911:0.038315381 3959:0.016034416 3984:0.038315381 4040:0.012804262 4134:0.13419164 4137:0.023167333 4248:0.02578662 4331:0.016979156 4414:0.15516161 4431:0.019302792 4459:0.13322441 4488:0.014431949 4534:0.020838549 4536:0.20035738 4566:0.014078044 4574:0.035159015 4623:0.0092192797 4655:0.12778015 4658:0.040245386 4668:0.035159015 4669:0.038315381 4680:0.013906948 4707:0.10424981 4940:0.029763172 5144:0.035159015 5381:0.029763172 5386:0.01777149 5389:0.018653703 5551:0.024367328 5565:0.029763172 5670:0.038315381 5716:0.018054596 5742:0.029763172 5825:0.13167815 5857:0.13103705 5960:0.076630763 6030:0.021210962 6095:0.043311829 6123:0.032919538 6197:0.038315381 6223:0.038315381 6261:0.0098966247 6290:0.032919538 6292:0.023167333 6381:0.023744231 6442:0.02212785 6516:0.12827533 6530:0.040021934 6750:0.021655915 6791:0.19493862 6818:0.032919538 6856:0.038315381 6861:0.019004771 6865:0.12276852 6867:0.013575641 6872:0.016979156 6875:0.021655915 6878:0.011583313 6886:0.025044673 6897:0.03999354 6919:0.027523694 6956:0.014078044 6978:0.035428568 7041:0.024367328 7146:0.031182464 7174:0.032919538 7312:0.035159015 7441:0.024367328 7459:0.1739663 7462:0.1467871 7478:0.023677134 7487:0.019648829 7489:0.028563177 7496:0.030384042 7499:0.11709894 7535:0.038315381 7548:0.021210962 7551:0.022917514 7553:0.016034416 7568:0.014615123 7601:0.28127212 7626:0.13855275 7641:0.032919538 7647:0.032919538 7673:0.023744231 7686:0.031182464 7734:0.032984926 7739:0.33995215 7743:0.023744231 7746:0.086004657 
0 0.47562282119588217 0 0 0 89:0.13007258 107:0.11935739 124:0.035740837 176:0.05680161 180:0.12148057 241:0.10737793 474:0.067932983 492:0.14401342 717:0.075119353 904:0.045541513 912:0.095583942 1397:0.090324454 1488:0.11175484 1658:0.13007258 1796:0.0869355 1852:0.042488863 1967:0.10103965 2046:0.10737793 2162:0.076824907 2571:0.037670666 2716:0.080606622 2783:0.082721904 2792:0.062288878 2809:0.11528126 2841:0.11935739 2894:0.085021346 2939:0.070577881 2999:0.054433437 3079:0.05680161 3086:0.28820315 3088:0.11935739 3205:0.11935739 3283:0.028045398 3352:0.085021346 3370:0.10079082 3379:0.063868641 3386:0.18057847 3513:0.10585784 3572:0.078648176 3575:0.078648176 3723:0.090324454 3848:0.047791971 4040:0.04346775 4051:0.09696592 4059:0.050252064 4258:0.13007258 4331:0.05764063 4414:0.061969497 4488:0.1469802 4492:0.073517231 4578:0.076967733 4655:0.092954245 4695:0.075119353 4726:0.19658664 4874:0.066703603 4985:0.11175484 5250:0.050904614 5559:0.053688967 5857:0.044484295 5865:0.16544381 6188:0.13007258 6261:0.033596939 6530:0.47553088 6739:0.052260137 6745:0.10103965 6816:0.055199488 6854:0.060330433 6865:0.11907801 6872:0.11528126 6878:0.039322887 6897:0.033942394 6978:0.090204348 7006:0.063325361 7007:0.075119353 7041:0.16544381 7166:0.073517231 7185:0.05680161 7499:0.11925781 7531:0.073517231 7708:0.058507164 7720:0.0875401 7739:0.030370141 7746:0.036495943 
0 0.023926323136046965 0 0 0 145:0.21452623 180:0.19104952 241:0.096497517 336:0.062208177 346:0.10726312 601:0.10043092 634:0.076406282 766:0.090801477 769:0.063426348 871:0.048917792 1166:0.10043092 1183:0.10043092 1215:0.10726312 1453:0.10043092 1522:0.10726312 1544:0.050315202 1546:0.069040374 1796:0.078126478 2046:0.048248758 2162:0.069040374 2238:0.10726312 2491:0.030817633 2564:0.081172035 2713:0.032797873 2783:0.074339838 2845:0.090801477 2869:0.081172035 2894:0.076406282 2924:0.11689256 2944:0.069040374 3006:0.067507641 3184:0.041916561 3256:0.050315202 3283:0.050407213 3370:0.03019262 3379:0.028698472 3386:0.032456153 3388:0.23600945 3575:0.14135779 3636:0.035724541 3765:0.081172035 3848:0.042949294 3888:0.069040374 3959:0.048917792 4134:0.027292788 4331:0.051800006 4377:0.064710397 4417:0.29735935 4514:0.061049453 4578:0.034584364 4623:0.14063088 4655:0.027845118 4707:0.035338367 4794:0.10043092 4874:0.059944643 5144:0.10726312 5389:0.056908713 5413:0.083969279 5622:0.10726312 5743:0.046964709 5744:0.17428107 5865:0.29735935 5940:0.090801477 5953:0.11689256 6014:0.083969279 6159:0.078669815 6261:0.03019262 6512:0.10726312 6739:0.046964709 6854:0.10843451 6861:0.028989876 6863:0.041916561 6865:0.18727108 6867:0.041416561 6878:0.070676735 6879:0.10043092 6880:0.087140533 6885:0.054217256 6887:0.20126081 6897:0.030503071 6978:0.13510683 7006:0.056908713 7093:0.10043092 7273:0.032119281 7487:0.059944643 7543:0.13119149 7551:0.034958373 7564:0.076406282 7581:0.050315202 7661:0.27988628 7727:0.070678894 7739:0.10917115 
0 0.098748583657654737 0 0 0 20:0.034383212 124:0.081911787 151:0.1201653 180:0.046402057 241:0.24609156 283:0.1007742 382:0.15437687 451:0.056162906 452:0.091182132 461:0.055008956 464:0.12990277 469:0.041583992 766:0.077188437 859:0.079405254 891:0.046823169 912:0.10953089 1394:0.091182132 1522:0.091182132 1559:0.063194742 1614:0.17074845 1702:0.11001791 1981:0.063194742 2072:0.064951383 2175:0.077188437 2260:0.061578789 2263:0.099367918 2572:0.063194742 2713:0.027880786 2783:0.063194742 2932:0.099367918 2954:0.08086926 2969:0.060082651 3000:0.049201047 3015:0.06900265 3263:0.24395971 3283:0.1071253 3352:0.064951383 3370:0.10266446 3379:0.024395971 3386:0.027590298 3520:0.058172873 3854:0.060082651 3861:0.053486195 3884:0.099367918 4044:0.077188437 4134:0.069603086 4143:0.099367918 4414:0.023670553 4488:0.03742812 4534:0.081064698 4566:0.036510297 4611:0.099367918 4623:0.023909474 4655:0.047341106 4874:0.050957688 5139:0.099367918 5342:0.098402095 5352:0.15437687 5388:0.099367918 5494:0.077188437 5536:0.066875565 5615:0.15437687 5823:0.099367918 5825:0.085374224 5846:0.091182132 5857:0.10195027 5978:0.099367918 6006:0.099367918 6122:0.17074845 6299:0.064951383 6322:0.061578789 6350:0.14276106 6381:0.061578789 6460:0.099367918 6530:0.10379373 6553:0.085374224 6584:0.091182132 6593:0.17074845 6861:0.049287375 6865:0.22742176 6866:0.058689779 6867:0.035207353 6872:0.088068204 6877:0.083167985 6878:0.18024244 6887:0.042771902 6897:0.12965011 6905:0.074076345 6922:0.091182132 6978:0.20673269 7078:0.085374224 7151:0.1201653 7273:0.027303929 7441:0.063194742 7456:0.085374224 7463:0.085374224 7536:0.099367918 7543:0.055761573 7551:0.059434765 7581:0.042771902 7597:0.037903169 7626:0.076998346 7653:0.071380529 7689:0.091182132 7739:0.069603086 7746:0.083642359 
0.45283368382802031 0 0 0 0 48:0.071546559 124:0.068644917 168:0.04163688 176:0.018182477 180:0.038886532 197:0.021352155 248:0.04163688 254:0.018728434 264:0.063528339 273:0.035773279 283:0.042226136 293:0.16654752 296:0.04163688 349:0.070376893 443:0.058412664 489:0.028913306 606:0.032343293 622:0.02580258 642:0.033885622 687:0.032343293 710:0.01901522 744:0.02580258 787:0.032343293 859:0.044362904 871:0.05227324 904:0.014578064 912:0.030596895 976:0.064686586 1002:0.035773279 1158:0.031039273 1223:0.026479692 1480:0.029909679 1544:0.017922168 1568:0.04163688 1651:0.04163688 1796:0.013914243 1808:0.038206893 1834:0.057826613 1872:0.027215755 1967:0.032343293 2046:0.06874442 2099:0.04163688 2140:0.033885622 2163:0.077248285 2241:0.13607878 2260:0.02580258 2266:0.028022021 2297:0.035773279 2324:0.026479692 2326:0.076413787 2373:0.035773279 2491:0.021954351 2495:0.04163688 2547:0.062078545 2571:0.084409972 2576:0.08327376 2624:0.04163688 2656:0.031039273 2713:0.10514279 2839:0.028913306 2841:0.038206893 2867:0.04163688 2879:0.038206893 2891:0.04163688 2894:0.027215755 2906:0.033885622 2930:0.031039273 2956:0.035773279 2969:0.025175672 2989:0.015298447 2999:0.29621503 3023:0.04163688 3054:0.17214424 3079:0.14545982 3082:0.032343293 3086:0.27676578 3088:0.038206893 3123:0.04163688 3146:0.033885622 3179:0.026479692 3225:0.04163688 3281:0.04163688 3283:0.062842298 3370:0.086036377 3379:0.020444669 3386:0.023121626 3520:0.024375442 3562:0.035773279 3572:0.025175672 3636:0.050900022 3756:0.028913306 3765:0.028913306 3783:0.027215755 3848:0.061193789 3861:0.033617464 3884:0.04163688 3912:0.032343293 3934:0.038206893 4016:0.024592034 4034:0.031039273 4059:0.016085935 4174:0.035773279 4241:0.033885622 4315:0.019619719 4323:0.04163688 4325:0.035773279 4334:0.033885622 4377:0.046099411 4431:0.02097612 4488:0.12546425 4534:0.022645009 4578:0.012318877 4623:0.050092421 4655:0.049591859 4658:0.043734193 4695:0.024046078 4707:0.025174903 4807:0.04163688 4822:0.024592034 4839:0.04163688 4983:0.031039273 4985:0.14309312 5154:0.2081844 5320:0.04163688 5387:0.032343293 5516:0.04163688 5645:0.04163688 5716:0.058859158 5743:0.01672873 5857:0.014239644 5864:0.029909679 5908:0.035773279 5909:0.15282757 5922:0.16654752 5957:0.04163688 6018:0.071546559 6030:0.092198823 6102:0.076413787 6121:0.035773279 6261:0.032263641 6276:0.035773279 6292:0.025175672 6294:0.04163688 6297:0.02580258 6466:0.038206893 6473:0.038206893 6516:0.034848827 6534:0.033885622 6593:0.035773279 6623:0.033885622 6674:0.16654752 6798:0.04163688 6861:0.010326132 6865:0.34305718 6866:0.024592034 6867:0.014752491 6871:0.015683031 6872:0.018451052 6878:0.11328706 6885:0.019312071 6897:0.043460516 6905:0.031039273 6917:0.017424413 6946:0.028913306 6978:0.17324916 7006:0.020270763 7007:0.096184312 7019:0.04163688 7054:0.035773279 7149:0.024592034 7151:0.050351344 7185:0.018182477 7273:0.034322459 7376:0.04163688 7447:0.04163688 7449:0.027215755 7453:0.04163688 7465:0.10731984 7466:0.05443151 7474:0.038206893 7478:0.025729666 7489:0.062078545 7531:0.094132924 7551:0.14942518 7557:0.052959384 7568:0.03176417 7626:0.13980911 7629:0.023533231 7661:0.019938979 7673:0.02580258 7739:0.18471103 7742:0.10591877 7747:0.079755917 7748:0.11208808 
0 0.46297957798205952 0.050068263773797493 0 0 21:0.019700284 40:0.024206679 101:0.01529207 124:0.08646842 151:0.014636529 176:0.010570854 180:0.10738654 189:0.022212568 218:0.018803611 241:0.019983175 264:0.018466923 270:0.015000999 276:0.012195011 283:0.098197034 349:0.049098517 438:0.020797723 443:0.074711375 469:0.010130134 474:0.012642418 574:0.022212568 604:0.020797723 627:0.024206679 645:0.022212568 656:0.013979811 726:0.0168095 742:0.018803611 744:0.015000999 753:0.024206679 859:0.012895762 892:0.019700284 900:0.013979811 904:0.0084753355 912:0.017788298 961:0.030926276 1041:0.73894345 1363:0.022455146 1408:0.014636529 1480:0.034777534 1500:0.012882372 1522:0.022212568 1523:0.024206679 1564:0.017388767 1720:0.024206679 1796:0.016178811 1807:0.017388767 1825:0.013400544 1827:0.0071618983 1837:0.032582656 1852:0.015814467 1865:0.022212568 1991:0.024206679 2046:0.019983175 2163:0.011227573 2164:0.015394655 2169:0.11106284 2174:0.020797723 2243:0.018045485 2292:0.015822585 2297:0.020797723 2309:0.024206679 2437:0.024206679 2451:0.026801088 2453:0.020797723 2461:0.024206679 2484:0.018045485 2491:0.089346116 2554:0.0168095 2571:0.021031682 2584:0.01088826 2593:0.016291328 2612:0.018045485 2622:0.010726997 2713:0.013583886 2741:0.020545395 2771:0.0081830862 2781:0.019700284 2782:0.016291328 2792:0.011592042 2804:0.019954251 2857:0.019700284 2866:0.024206679 2917:0.01088826 2969:0.014636529 2989:0.11562393 2999:0.020260269 3018:0.019700284 3052:0.018045485 3072:0.024206679 3086:0.010726997 3106:0.013681654 3179:0.015394655 3184:0.0086802854 3240:0.087816493 3256:0.052097584 3263:0.023772077 3269:0.03940391 3283:0.031315713 3315:0.041595446 3331:0.015822585 3343:0.020797723 3370:0.031262173 3379:0.11886038 3386:0.0067211781 3446:0.022212568 3520:0.02834259 3587:0.018803611 3636:0.029592047 3642:0.094018057 3721:0.026269273 3771:0.013979811 3773:0.036090971 3831:0.024206679 3848:0.017788298 3861:0.039088768 3892:0.017388767 3931:0.019700284 3967:0.024206679 4007:0.022212568 4040:0.016178811 4059:0.018703951 4074:0.014636529 4111:0.013400544 4128:0.032582656 4134:0.011303847 4200:0.015394655 4212:0.20969716 4221:0.019700284 4230:0.012882372 4238:0.024206679 4243:0.011784933 4306:0.024206679 4333:0.019700284 4336:0.015394655 4367:0.020797723 4414:0.028831513 4426:0.017388767 4459:0.0093519753 4534:0.026330526 4554:0.022212568 4566:0.026682446 4578:0.04297139 4581:0.024206679 4623:0.023298022 4624:0.0093519753 4625:0.022212568 4655:0.028831513 4658:0.1440807 4668:0.022212568 4680:0.043930273 4689:0.022212568 4707:0.029272164 4736:0.020797723 4822:0.014297217 4859:0.072620038 4941:0.024206679 4947:0.024206679 4991:0.022212568 4995:0.024206679 5014:0.022212568 5210:0.024206679 5351:0.033619 5355:0.018803611 5381:0.018803611 5386:0.011227573 5535:0.030789311 5551:0.015394655 5559:0.0099915876 5615:0.037607223 5628:0.037607223 5666:0.024206679 5857:0.024835758 5881:0.017388767 5927:0.018803611 5946:0.024206679 6025:0.031645169 6030:0.013400544 6040:0.012195011 6050:0.018803611 6149:0.022212568 6202:0.015000999 6261:0.031262173 6306:0.019700284 6374:0.020797723 6420:0.019700284 6456:0.015000999 6516:0.010130134 6544:0.014297217 6553:0.020797723 6664:0.018803611 6739:0.029177041 6816:0.010272697 6827:0.018803611 6854:0.011227573 6861:0.054030281 6865:0.16620432 6888:0.0168095 6897:0.037900346 6947:0.024206679 6978:0.089531456 7010:0.013979811 7062:0.024206679 7113:0.022212568 7150:0.013979811 7185:0.22198794 7267:0.015394655 7273:0.019954251 7287:0.023569866 7290:0.013134637 7335:0.015000999 7368:0.020797723 7478:0.0074793042 7482:0.18001198 7497:0.022212568 7499:0.029592047 7516:0.020797723 7521:0.021776521 7543:0.0067919432 7551:0.0434361 7553:0.010130134 7568:0.0092334616 7579:0.018045485 7593:0.022212568 7626:0.043767043 7675:0.18987101 7701:0.029177041 7718:0.0097256804 7739:0.15260193 7746:0.067919432 7747:0.023184085 
0 0 0.10644706940165678 0 0 0:0.055239075 20:0.019113783 86:0.041179375 101:0.017448072 122:0.039680759 124:0.045535133 138:0.044955587 139:0.039680759 176:0.048244885 180:0.07738534 197:0.056655218 213:0.050688559 261:0.047459917 264:0.021070543 274:0.055239075 424:0.055239075 443:0.061996221 453:0.037176429 464:0.036106767 474:0.057699402 524:0.027351085 602:0.055239075 647:0.055239075 678:0.050688559 696:0.042909401 716:0.055239075 746:0.047459917 859:0.029427827 871:0.023116729 891:0.026029211 892:0.044955587 904:0.019340517 912:0.020296239 961:0.052929777 1012:0.032625913 1158:0.041179375 1159:0.038358885 1161:0.055239075 1218:0.055239075 1223:0.035130243 1225:0.041179375 1250:0.044955587 1282:0.050688559 1453:0.047459917 1535:0.042909401 1544:0.11888547 1559:0.10539073 1561:0.055239075 1704:0.23380152 1716:0.037176429 1746:0.050688559 1801:0.047459917 1814:0.034231927 1837:0.037176429 1885:0.039680759 1965:0.050688559 1971:0.079361517 1981:0.070260486 1992:0.11047815 2046:0.045601138 2072:0.036106767 2159:0.11558365 2164:0.035130243 2187:0.050688559 2234:0.026892941 2265:0.047459917 2298:0.044955587 2322:0.027351085 2323:0.079361517 2328:0.037176429 2400:0.11047815 2412:0.032625913 2441:0.050688559 2472:0.042909401 2491:0.043689802 2517:0.038358885 2713:0.015499055 2715:0.13692771 2741:0.04688411 2768:0.055239075 2775:0.0319016 2782:0.037176429 2804:0.015178378 2809:0.024478756 2885:0.066800434 2944:0.032625913 2961:0.044955587 3006:0.063803201 3008:0.094919833 3012:0.068463854 3018:0.17982235 3034:0.050688559 3048:0.052905538 3083:0.18983967 3086:0.024478756 3089:0.026452769 3120:0.0319016 3170:0.047459917 3178:0.094919833 3245:0.055239075 3263:0.18986563 3283:0.11910287 3331:0.036106767 3349:0.055239075 3370:0.028535819 3379:0.054247322 3386:0.046012713 3478:0.050688559 3520:0.032338563 3544:0.023116729 3575:0.033400217 3587:0.042909401 3602:0.055239075 3636:0.016882089 3682:0.042909401 3721:0.029972933 3727:0.038358885 3765:0.038358885 3771:0.0319016 3848:0.020296239 3861:0.059466435 3888:0.032625913 3901:0.14237975 3907:0.047459917 3928:0.042909401 3932:0.085818802 3950:0.034231927 3999:0.039680759 4037:0.055239075 4043:0.070260486 4103:0.055239075 4116:0.039680759 4134:0.051590226 4135:0.050688559 4194:0.044955587 4294:0.055239075 4317:0.055239075 4325:0.047459917 4331:0.024478756 4333:0.044955587 4336:0.035130243 4397:0.034231927 4414:0.10526854 4431:0.027828729 4459:0.042681977 4471:0.055239075 4491:0.055239075 4514:0.028849701 4534:0.015021411 4545:0.044955587 4566:0.040592478 4570:0.055239075 4578:0.049029852 4623:0.093039694 4655:0.039475702 4658:0.058021552 4660:0.033400217 4662:0.022800569 4675:0.055239075 4680:0.020049571 4738:0.028849701 4746:0.047459917 4749:0.047459917 4754:0.050688559 4807:0.055239075 4830:0.047459917 4891:0.055239075 4926:0.08235875 5169:0.055239075 5177:0.047459917 5310:0.055239075 5351:0.038358885 5381:0.042909401 5409:0.089911174 5513:0.035130243 5515:0.055239075 5559:0.022800569 5565:0.042909401 5615:0.042909401 5669:0.036106767 5706:0.028327609 5719:0.14237975 5822:0.15206568 5850:0.044955587 5857:0.018891539 5926:0.044955587 5972:0.13914365 6002:0.020548451 6030:0.030579727 6059:0.038358885 6151:0.050688559 6183:0.072213535 6261:0.099875366 6285:0.022193775 6291:0.037176429 6299:0.036106767 6300:0.047459917 6320:0.035130243 6322:0.034231927 6442:0.0319016 6444:0.044955587 6457:0.036106767 6479:0.044955587 6498:0.036106767 6502:0.055239075 6516:0.023116729 6547:0.050688559 6568:0.037176429 6692:0.044955587 6706:0.047459917 6854:0.051242118 6857:0.041179375 6861:0.027399074 6865:0.25284957 6876:0.055239075 6878:0.13359679 6880:0.041179375 6885:0.025621059 6887:0.023777093 6897:0.072073084 6911:0.030579727 6917:0.023116729 6939:0.055239075 6956:0.040592478 6958:0.034231927 6969:0.044955587 6978:0.15323151 6987:0.041179375 7105:0.037176429 7150:0.0319016 7168:0.055239075 7174:0.047459917 7180:0.041179375 7185:0.024122442 7221:0.055239075 7273:0.030356755 7281:0.11047815 7294:0.089911174 7441:0.035130243 7446:0.041179375 7450:0.047459917 7462:0.026452769 7478:0.13654078 7482:0.034231927 7496:0.021902253 7543:0.015499055 7551:0.033040054 7626:0.014267909 7636:0.042909401 7655:0.030579727 7657:0.089911174 7670:0.047459917 7688:0.094919833 7718:0.022193775 7734:0.047554187 7739:0.025795113 7743:0.034231927 7783:0.047459917 
0 0.44566312806005165 0 0 0.040875590997012129 89:0.079736679 122:0.05727851 124:0.043819468 140:0.079736679 150:0.040170304 180:0.14893926 200:0.068507595 218:0.061939001 254:0.035865875 264:0.1216599 270:0.049413214 283:0.026955045 443:0.06711788 460:0.068507595 548:0.040890429 710:0.036415085 777:0.05727851 859:0.23363216 896:0.068507595 904:0.055835425 1094:0.14633617 1327:0.096425307 1452:0.059441738 1589:0.052119514 1705:0.042434468 1796:0.053292922 1852:0.052092774 2095:0.068507595 2172:0.079736679 2231:0.083288121 2236:0.073168086 2265:0.068507595 2322:0.078961665 2333:0.14633617 2374:0.05727851 2386:0.079736679 2472:0.061939001 2564:0.055370408 2571:0.046185503 2713:0.022372627 2741:0.033838214 2771:0.026955045 2781:0.12978527 2783:0.050709917 2790:0.050709917 2804:0.021909734 2809:0.035334675 2917:0.17932937 2958:0.073967138 3000:0.1184425 3012:0.049413214 3051:0.034321836 3068:0.092098852 3086:0.035334675 3179:0.050709917 3219:0.073168086 3240:0.048211181 3263:0.03915255 3283:0.0515769 3331:0.052119514 3352:0.052119514 3370:0.041190976 3379:0.058728826 3386:0.022139527 3520:0.046680174 3544:0.16684306 3572:0.096425307 3623:0.049413214 3766:0.064892637 3806:0.031205384 3848:0.14648641 3861:0.021459701 3882:0.047094959 3889:0.068507595 3892:0.05727851 3927:0.04164406 3930:0.20445215 3931:0.064892637 3950:0.049413214 4134:0.055852221 4194:0.064892637 4243:0.03881951 4297:0.073168086 4414:0.22793006 4417:0.050709917 4488:0.030033778 4536:0.052119514 4557:0.079736679 4566:0.087891844 4572:0.042434468 4578:0.047182514 4623:0.019185891 4655:0.056982514 4662:0.065824478 4696:0.073168086 4704:0.045067298 4746:0.068507595 5012:0.049413214 5148:0.059441738 5250:0.031205384 5286:0.073168086 5288:0.050709917 5387:0.061939001 5658:0.061939001 5716:0.03757273 5794:0.053663553 5857:0.054539241 5912:0.079736679 6099:0.061939001 6159:0.16099066 6285:0.064072685 6292:0.048212654 6299:0.10423903 6457:0.052119514 6476:0.11645853 6477:0.059441738 6516:0.033368611 6539:0.05727851 6584:0.21950426 6587:0.079736679 6861:0.07910021 6865:0.20074127 6897:0.020807258 6917:0.033368611 6956:0.029297281 6958:0.049413214 6978:0.22118712 7166:0.045067298 7273:0.1314584 7290:0.043265427 7335:0.098826427 7459:0.065824478 7482:0.14823964 7497:0.073168086 7499:0.024369013 7521:0.035865875 7528:0.10423903 7543:0.044745253 7551:0.071539148 7553:0.033368611 7691:0.10423903 7701:0.032036342 7720:0.053663553 7739:0.13032185 
